digraph Tree {
node [shape=box, style="filled, rounded", color="black", fontname=helvetica] ;
edge [fontname=helvetica] ;
0 [label=<hour &le; 15.5<br/>gini = 0.8<br/>samples = 26999747<br/>value = [5399954, 5399945, 5399950, 5399948, 5399950]>, fillcolor="#ffffff"] ;
1 [label=<dow &le; 4.5<br/>gini = 0.69<br/>samples = 6144561<br/>value = [2939659, 1396775, 717810, 472868, 617449]>, fillcolor="#f7d6bf"] ;
0 -> 1 [labeldistance=2.5, labelangle=45, headlabel="True"] ;
2 [label=<hour &le; 1.5<br/>gini = 0.464<br/>samples = 2915581<br/>value = [2029852, 631914, 180665, 60148, 13002]>, fillcolor="#efb286"] ;
1 -> 2 ;
3 [label=<dow &le; 2.5<br/>gini = 0.614<br/>samples = 1570028<br/>value = [804467, 519635, 174479, 59008, 12439]>, fillcolor="#f8ddc9"] ;
2 -> 3 ;
4 [label=<hour &le; 0.5<br/>gini = 0.468<br/>samples = 734550<br/>value = [494610, 203685, 30021, 5377, 857]>, fillcolor="#f1ba92"] ;
3 -> 4 ;
5 [label=<dow &le; 1.5<br/>gini = 0.539<br/>samples = 464971<br/>value = [270376, 160788, 27953, 5121, 733]>, fillcolor="#f6d2b8"] ;
4 -> 5 ;
6 [label=<PULocationID &le; 79.5<br/>gini = 0.474<br/>samples = 280463<br/>value = [184457, 85176, 9311, 1281, 238]>, fillcolor="#f2bf9a"] ;
5 -> 6 ;
7 [label=<PULocationID &le; 47.5<br/>gini = 0.567<br/>samples = 51529<br/>value = [23115, 24552, 3384, 416, 62]>, fillcolor="#f8fef5"] ;
6 -> 7 ;
8 [label=<gini = 0.0<br/>samples = 10531<br/>value = [10530, 1, 0, 0, 0]>, fillcolor="#e58139"] ;
7 -> 8 ;
11 [label=<PULocationID &le; 48.5<br/>gini = 0.54<br/>samples = 40998<br/>value = [12585, 24551, 3384, 416, 62]>, fillcolor="#c7f4ac"] ;
7 -> 11 ;
12 [label=<dow &le; 0.5<br/>gini = 0.17<br/>samples = 12354<br/>value = [7, 11211, 998, 118, 20]>, fillcolor="#88e84d"] ;
11 -> 12 ;
13 [label=<gini = 0.187<br/>samples = 6344<br/>value = [2, 5690, 573, 64, 15]>, fillcolor="#8ae84f"] ;
12 -> 13 ;
14 [label=<gini = 0.151<br/>samples = 6010<br/>value = [5, 5521, 425, 54, 5]>, fillcolor="#87e74a"] ;
12 -> 14 ;
15 [label=<PULocationID &le; 78.5<br/>gini = 0.583<br/>samples = 28644<br/>value = [12578, 13340, 2386, 298, 42]>, fillcolor="#f9fef6"] ;
11 -> 15 ;
16 [label=<dow &le; 0.5<br/>gini = 0.212<br/>samples = 14290<br/>value = [12578, 1662, 36, 7, 7]>, fillcolor="#e99254"] ;
15 -> 16 ;
17 [label=<gini = 0.229<br/>samples = 7430<br/>value = [6456, 952, 16, 3, 3]>, fillcolor="#e99457"] ;
16 -> 17 ;
18 [label=<gini = 0.193<br/>samples = 6860<br/>value = [6122, 710, 20, 4, 4]>, fillcolor="#e89051"] ;
16 -> 18 ;
19 [label=<gini = 0.311<br/>samples = 14354<br/>value = [0, 11678, 2350, 291, 35]>, fillcolor="#98eb65"] ;
15 -> 19 ;
22 [label=<PULocationID &le; 160.5<br/>gini = 0.433<br/>samples = 228934<br/>value = [161342, 60624, 5927, 865, 176]>, fillcolor="#efb489"] ;
6 -> 22 ;
23 [label=<PULocationID &le; 137.5<br/>gini = 0.261<br/>samples = 94970<br/>value = [80366, 14358, 166, 41, 39]>, fillcolor="#ea985d"] ;
22 -> 23 ;
24 [label=<PULocationID &le; 115.0<br/>gini = 0.156<br/>samples = 50015<br/>value = [45761, 4136, 70, 19, 29]>, fillcolor="#e78d4b"] ;
23 -> 24 ;
25 [label=<PULocationID &le; 113.5<br/>gini = 0.203<br/>samples = 35242<br/>value = [31223, 3931, 59, 16, 13]>, fillcolor="#e89152"] ;
24 -> 25 ;
26 [label=<PULocationID &le; 99.0<br/>gini = 0.143<br/>samples = 27741<br/>value = [25589, 2106, 30, 10, 6]>, fillcolor="#e78c4a"] ;
25 -> 26 ;
27 [label=<gini = 0.043<br/>samples = 10101<br/>value = [9878, 215, 5, 1, 2]>, fillcolor="#e6843d"] ;
26 -> 27 ;
28 [label=<gini = 0.195<br/>samples = 17640<br/>value = [15711, 1891, 25, 9, 4]>, fillcolor="#e89051"] ;
26 -> 28 ;
33 [label=<gini = 0.377<br/>samples = 7501<br/>value = [5634, 1825, 29, 6, 7]>, fillcolor="#eeaa7a"] ;
25 -> 33 ;
34 [label=<gini = 0.031<br/>samples = 14773<br/>value = [14538, 205, 11, 3, 16]>, fillcolor="#e5833c"] ;
24 -> 34 ;
37 [label=<PULocationID &le; 138.5<br/>gini = 0.356<br/>samples = 44955<br/>value = [34605, 10222, 96, 22, 10]>, fillcolor="#eda774"] ;
23 -> 37 ;
38 [label=<gini = 0.475<br/>samples = 11333<br/>value = [4312, 6989, 20, 5, 7]>, fillcolor="#cdf5b4"] ;
37 -> 38 ;
39 [label=<gini = 0.179<br/>samples = 33622<br/>value = [30293, 3233, 76, 17, 3]>, fillcolor="#e88f4f"] ;
37 -> 39 ;
48 [label=<PULocationID &le; 234.5<br/>gini = 0.513<br/>samples = 133964<br/>value = [80976, 46266, 5761, 824, 137]>, fillcolor="#f5cdb1"] ;
22 -> 48 ;
49 [label=<PULocationID &le; 229.5<br/>gini = 0.56<br/>samples = 93326<br/>value = [47438, 39362, 5600, 799, 127]>, fillcolor="#fbece1"] ;
48 -> 49 ;
50 [label=<PULocationID &le; 162.5<br/>gini = 0.485<br/>samples = 60595<br/>value = [37610, 21787, 1037, 128, 33]>, fillcolor="#f4ccae"] ;
49 -> 50 ;
51 [label=<dow &le; 0.5<br/>gini = 0.515<br/>samples = 17502<br/>value = [5900, 10630, 860, 99, 13]>, fillcolor="#c9f4ae"] ;
50 -> 51 ;
52 [label=<gini = 0.14<br/>samples = 5652<br/>value = [5224, 413, 8, 5, 2]>, fillcolor="#e78b49"] ;
51 -> 52 ;
53 [label=<PULocationID &le; 161.5<br/>gini = 0.248<br/>samples = 11850<br/>value = [676, 10217, 852, 94, 11]>, fillcolor="#8fe956"] ;
51 -> 53 ;
54 [label=<gini = 0.224<br/>samples = 6776<br/>value = [0, 5918, 764, 86, 8]>, fillcolor="#8ee955"] ;
53 -> 54 ;
55 [label=<gini = 0.264<br/>samples = 5074<br/>value = [676, 4299, 88, 8, 3]>, fillcolor="#92ea5c"] ;
53 -> 55 ;
56 [label=<PULocationID &le; 187.0<br/>gini = 0.391<br/>samples = 43093<br/>value = [31710, 11157, 177, 29, 20]>, fillcolor="#eeae80"] ;
50 -> 56 ;
57 [label=<PULocationID &le; 185.5<br/>gini = 0.453<br/>samples = 33383<br/>value = [22063, 11101, 173, 29, 17]>, fillcolor="#f2c19e"] ;
56 -> 57 ;
58 [label=<dow &le; 0.5<br/>gini = 0.384<br/>samples = 24677<br/>value = [18361, 6182, 106, 14, 14]>, fillcolor="#eeac7d"] ;
57 -> 58 ;
59 [label=<gini = 0.217<br/>samples = 10983<br/>value = [9627, 1327, 21, 4, 4]>, fillcolor="#e99355"] ;
58 -> 59 ;
60 [label=<PULocationID &le; 164.5<br/>gini = 0.467<br/>samples = 13694<br/>value = [8734, 4855, 85, 10, 10]>, fillcolor="#f4c8a8"] ;
58 -> 60 ;
61 [label=<gini = 0.509<br/>samples = 8506<br/>value = [4473, 3940, 76, 7, 10]>, fillcolor="#fcf0e8"] ;
60 -> 61 ;
62 [label=<gini = 0.294<br/>samples = 5188<br/>value = [4261, 915, 9, 3, 0]>, fillcolor="#eb9c64"] ;
60 -> 62 ;
63 [label=<gini = 0.5<br/>samples = 8706<br/>value = [3702, 4919, 67, 15, 3]>, fillcolor="#dff9cf"] ;
57 -> 63 ;
64 [label=<gini = 0.013<br/>samples = 9710<br/>value = [9647, 56, 4, 0, 3]>, fillcolor="#e5823a"] ;
56 -> 64 ;
65 [label=<PULocationID &le; 230.5<br/>gini = 0.602<br/>samples = 32731<br/>value = [9828, 17575, 4563, 671, 94]>, fillcolor="#d2f6bc"] ;
49 -> 65 ;
66 [label=<gini = 0.466<br/>samples = 15381<br/>value = [1, 10370, 4289, 643, 78]>, fillcolor="#b7f192"] ;
65 -> 66 ;
69 [label=<PULocationID &le; 233.5<br/>gini = 0.506<br/>samples = 17350<br/>value = [9827, 7205, 274, 28, 16]>, fillcolor="#f8decc"] ;
65 -> 69 ;
70 [label=<gini = 0.031<br/>samples = 7587<br/>value = [7467, 109, 4, 2, 5]>, fillcolor="#e5833c"] ;
69 -> 70 ;
71 [label=<gini = 0.413<br/>samples = 9763<br/>value = [2360, 7096, 270, 26, 11]>, fillcolor="#abee80"] ;
69 -> 71 ;
72 [label=<PULocationID &le; 248.5<br/>gini = 0.29<br/>samples = 40638<br/>value = [33538, 6904, 161, 25, 10]>, fillcolor="#ea9c63"] ;
48 -> 72 ;
73 [label=<gini = 0.024<br/>samples = 18133<br/>value = [17910, 213, 9, 1, 0]>, fillcolor="#e5833b"] ;
72 -> 73 ;
76 [label=<PULocationID &le; 249.5<br/>gini = 0.429<br/>samples = 22505<br/>value = [15628, 6691, 152, 24, 10]>, fillcolor="#f0b88f"] ;
72 -> 76 ;
77 [label=<gini = 0.452<br/>samples = 9719<br/>value = [3007, 6534, 145, 24, 9]>, fillcolor="#baf197"] ;
76 -> 77 ;
78 [label=<gini = 0.025<br/>samples = 12786<br/>value = [12621, 157, 7, 0, 1]>, fillcolor="#e5833c"] ;
76 -> 78 ;
81 [label=<PULocationID &le; 249.5<br/>gini = 0.605<br/>samples = 184508<br/>value = [85919, 75612, 18642, 3840, 495]>, fillcolor="#fdf3ec"] ;
5 -> 81 ;
82 [label=<PULocationID &le; 147.5<br/>gini = 0.61<br/>samples = 176872<br/>value = [78460, 75446, 18634, 3838, 494]>, fillcolor="#fefbf9"] ;
81 -> 82 ;
83 [label=<PULocationID &le; 115.0<br/>gini = 0.541<br/>samples = 81505<br/>value = [47959, 26828, 5506, 1060, 152]>, fillcolor="#f5ceb2"] ;
82 -> 83 ;
84 [label=<PULocationID &le; 47.5<br/>gini = 0.6<br/>samples = 56404<br/>value = [26100, 23670, 5460, 1038, 136]>, fillcolor="#fdf6f0"] ;
83 -> 84 ;
85 [label=<gini = 0.001<br/>samples = 6317<br/>value = [6314, 1, 1, 1, 0]>, fillcolor="#e58139"] ;
84 -> 85 ;
86 [label=<PULocationID &le; 79.5<br/>gini = 0.608<br/>samples = 50087<br/>value = [19786, 23669, 5459, 1037, 136]>, fillcolor="#eefce6"] ;
84 -> 86 ;
87 [label=<PULocationID &le; 78.5<br/>gini = 0.61<br/>samples = 25732<br/>value = [5081, 14264, 5262, 1007, 118]>, fillcolor="#c5f4a8"] ;
86 -> 87 ;
88 [label=<PULocationID &le; 48.5<br/>gini = 0.566<br/>samples = 16381<br/>value = [5081, 9379, 1656, 230, 35]>, fillcolor="#cdf5b4"] ;
87 -> 88 ;
89 [label=<gini = 0.369<br/>samples = 7682<br/>value = [1, 5904, 1537, 212, 28]>, fillcolor="#a1ed72"] ;
88 -> 89 ;
90 [label=<gini = 0.499<br/>samples = 8699<br/>value = [5080, 3475, 119, 18, 7]>, fillcolor="#f7d8c2"] ;
88 -> 90 ;
91 [label=<gini = 0.571<br/>samples = 9351<br/>value = [0, 4885, 3606, 777, 83]>, fillcolor="#e2f9d3"] ;
87 -> 91 ;
92 [label=<PULocationID &le; 98.5<br/>gini = 0.486<br/>samples = 24355<br/>value = [14705, 9405, 197, 30, 18]>, fillcolor="#f6d2b9"] ;
86 -> 92 ;
93 [label=<gini = 0.202<br/>samples = 7039<br/>value = [6240, 786, 12, 1, 0]>, fillcolor="#e89152"] ;
92 -> 93 ;
94 [label=<PULocationID &le; 112.5<br/>gini = 0.513<br/>samples = 17316<br/>value = [8465, 8619, 185, 29, 18]>, fillcolor="#fdfffc"] ;
92 -> 94 ;
95 [label=<gini = 0.512<br/>samples = 9170<br/>value = [4653, 4399, 90, 15, 13]>, fillcolor="#fef8f4"] ;
94 -> 95 ;
96 [label=<gini = 0.513<br/>samples = 8146<br/>value = [3812, 4220, 95, 14, 5]>, fillcolor="#f3fdec"] ;
94 -> 96 ;
97 [label=<PULocationID &le; 141.5<br/>gini = 0.226<br/>samples = 25101<br/>value = [21859, 3158, 46, 22, 16]>, fillcolor="#e99456"] ;
83 -> 97 ;
98 [label=<PULocationID &le; 137.5<br/>gini = 0.078<br/>samples = 16194<br/>value = [15533, 628, 11, 12, 10]>, fillcolor="#e68641"] ;
97 -> 98 ;
99 [label=<gini = 0.016<br/>samples = 7405<br/>value = [7347, 52, 1, 4, 1]>, fillcolor="#e5823b"] ;
98 -> 99 ;
100 [label=<gini = 0.128<br/>samples = 8789<br/>value = [8186, 576, 10, 8, 9]>, fillcolor="#e78a48"] ;
98 -> 100 ;
101 [label=<gini = 0.415<br/>samples = 8907<br/>value = [6326, 2530, 35, 10, 6]>, fillcolor="#f0b489"] ;
97 -> 101 ;
102 [label=<PULocationID &le; 164.5<br/>gini = 0.618<br/>samples = 95367<br/>value = [30501, 48618, 13128, 2778, 342]>, fillcolor="#daf8c8"] ;
82 -> 102 ;
103 [label=<PULocationID &le; 160.5<br/>gini = 0.408<br/>samples = 35999<br/>value = [4208, 27057, 4147, 505, 82]>, fillcolor="#a0ec71"] ;
102 -> 103 ;
104 [label=<gini = 0.528<br/>samples = 10401<br/>value = [3764, 6056, 505, 58, 18]>, fillcolor="#d1f6bb"] ;
103 -> 104 ;
105 [label=<PULocationID &le; 161.5<br/>gini = 0.306<br/>samples = 25598<br/>value = [444, 21001, 3642, 447, 64]>, fillcolor="#97ea62"] ;
103 -> 105 ;
106 [label=<gini = 0.501<br/>samples = 8492<br/>value = [0, 5304, 2778, 375, 35]>, fillcolor="#c5f4a7"] ;
105 -> 106 ;
107 [label=<PULocationID &le; 162.5<br/>gini = 0.155<br/>samples = 17106<br/>value = [444, 15697, 864, 72, 29]>, fillcolor="#86e74a"] ;
105 -> 107 ;
108 [label=<gini = 0.164<br/>samples = 6313<br/>value = [1, 5750, 510, 38, 14]>, fillcolor="#88e84c"] ;
107 -> 108 ;
109 [label=<PULocationID &le; 163.5<br/>gini = 0.148<br/>samples = 10793<br/>value = [443, 9947, 354, 34, 15]>, fillcolor="#86e749"] ;
107 -> 109 ;
110 [label=<gini = 0.195<br/>samples = 5200<br/>value = [431, 4645, 102, 17, 5]>, fillcolor="#8ae850"] ;
109 -> 110 ;
111 [label=<gini = 0.099<br/>samples = 5593<br/>value = [12, 5302, 252, 17, 10]>, fillcolor="#82e644"] ;
109 -> 111 ;
112 [label=<PULocationID &le; 248.0<br/>gini = 0.648<br/>samples = 59368<br/>value = [26293, 21561, 8981, 2273, 260]>, fillcolor="#fcefe6"] ;
102 -> 112 ;
113 [label=<PULocationID &le; 234.5<br/>gini = 0.635<br/>samples = 52515<br/>value = [26290, 15521, 8289, 2171, 244]>, fillcolor="#f7dac5"] ;
112 -> 113 ;
114 [label=<PULocationID &le; 233.5<br/>gini = 0.681<br/>samples = 41788<br/>value = [16157, 14939, 8277, 2171, 244]>, fillcolor="#fef9f6"] ;
113 -> 114 ;
115 [label=<PULocationID &le; 229.5<br/>gini = 0.669<br/>samples = 34638<br/>value = [16157, 8874, 7295, 2081, 231]>, fillcolor="#f8dbc7"] ;
114 -> 115 ;
116 [label=<PULocationID &le; 187.0<br/>gini = 0.479<br/>samples = 17709<br/>value = [10942, 6600, 133, 18, 16]>, fillcolor="#f5ceb2"] ;
115 -> 116 ;
117 [label=<PULocationID &le; 180.5<br/>gini = 0.501<br/>samples = 11159<br/>value = [4616, 6390, 124, 15, 14]>, fillcolor="#dbf8c9"] ;
116 -> 117 ;
118 [label=<gini = 0.513<br/>samples = 5705<br/>value = [2843, 2785, 65, 7, 5]>, fillcolor="#fefcfb"] ;
117 -> 118 ;
119 [label=<gini = 0.457<br/>samples = 5454<br/>value = [1773, 3605, 59, 8, 9]>, fillcolor="#bdf29c"] ;
117 -> 119 ;
120 [label=<gini = 0.066<br/>samples = 6550<br/>value = [6326, 210, 9, 3, 2]>, fillcolor="#e68540"] ;
116 -> 120 ;
121 [label=<PULocationID &le; 230.5<br/>gini = 0.693<br/>samples = 16929<br/>value = [5215, 2274, 7162, 2063, 215]>, fillcolor="#defbf5"] ;
115 -> 121 ;
122 [label=<gini = 0.521<br/>samples = 10999<br/>value = [1, 1571, 7155, 2058, 214]>, fillcolor="#8ef0de"] ;
121 -> 122 ;
123 [label=<gini = 0.213<br/>samples = 5930<br/>value = [5214, 703, 7, 5, 1]>, fillcolor="#e99254"] ;
121 -> 123 ;
124 [label=<gini = 0.261<br/>samples = 7150<br/>value = [0, 6065, 982, 90, 13]>, fillcolor="#92ea5c"] ;
114 -> 124 ;
125 [label=<gini = 0.105<br/>samples = 10727<br/>value = [10133, 582, 12, 0, 0]>, fillcolor="#e78845"] ;
113 -> 125 ;
126 [label=<gini = 0.213<br/>samples = 6853<br/>value = [3, 6040, 692, 102, 16]>, fillcolor="#8ce853"] ;
112 -> 126 ;
127 [label=<gini = 0.045<br/>samples = 7636<br/>value = [7459, 166, 8, 2, 1]>, fillcolor="#e6843e"] ;
81 -> 127 ;
128 [label=<PULocationID &le; 79.5<br/>gini = 0.283<br/>samples = 269579<br/>value = [224234, 42897, 2068, 256, 124]>, fillcolor="#ea9a61"] ;
4 -> 128 ;
129 [label=<PULocationID &le; 78.5<br/>gini = 0.485<br/>samples = 55545<br/>value = [34850, 19279, 1225, 135, 56]>, fillcolor="#f4c9aa"] ;
128 -> 129 ;
130 [label=<PULocationID &le; 47.5<br/>gini = 0.303<br/>samples = 39198<br/>value = [32011, 6836, 287, 38, 26]>, fillcolor="#eb9d65"] ;
129 -> 130 ;
131 [label=<gini = 0.001<br/>samples = 10463<br/>value = [10460, 1, 1, 0, 1]>, fillcolor="#e58139"] ;
130 -> 131 ;
132 [label=<PULocationID &le; 48.5<br/>gini = 0.381<br/>samples = 28735<br/>value = [21551, 6835, 286, 38, 25]>, fillcolor="#eeaa7a"] ;
130 -> 132 ;
133 [label=<gini = 0.521<br/>samples = 13203<br/>value = [6870, 6019, 263, 28, 23]>, fillcolor="#fcf0e8"] ;
132 -> 133 ;
134 [label=<gini = 0.104<br/>samples = 15532<br/>value = [14681, 816, 23, 10, 2]>, fillcolor="#e78844"] ;
132 -> 134 ;
137 [label=<dow &le; 1.5<br/>gini = 0.387<br/>samples = 16347<br/>value = [2839, 12443, 938, 97, 30]>, fillcolor="#a1ed72"] ;
129 -> 137 ;
138 [label=<gini = 0.446<br/>samples = 9827<br/>value = [2838, 6736, 223, 20, 10]>, fillcolor="#b5f091"] ;
137 -> 138 ;
139 [label=<gini = 0.222<br/>samples = 6520<br/>value = [1, 5707, 715, 77, 20]>, fillcolor="#8de955"] ;
137 -> 139 ;
140 [label=<PULocationID &le; 229.5<br/>gini = 0.205<br/>samples = 214034<br/>value = [189384, 23618, 843, 121, 68]>, fillcolor="#e89153"] ;
128 -> 140 ;
141 [label=<PULocationID &le; 147.5<br/>gini = 0.114<br/>samples = 144381<br/>value = [135636, 8458, 202, 46, 39]>, fillcolor="#e78946"] ;
140 -> 141 ;
142 [label=<PULocationID &le; 114.5<br/>gini = 0.034<br/>samples = 68963<br/>value = [67763, 1128, 39, 18, 15]>, fillcolor="#e5833d"] ;
141 -> 142 ;
143 [label=<PULocationID &le; 113.5<br/>gini = 0.06<br/>samples = 35791<br/>value = [34683, 1057, 29, 13, 9]>, fillcolor="#e6853f"] ;
142 -> 143 ;
144 [label=<gini = 0.025<br/>samples = 27552<br/>value = [27202, 328, 14, 3, 5]>, fillcolor="#e5833c"] ;
143 -> 144 ;
149 [label=<gini = 0.168<br/>samples = 8239<br/>value = [7481, 729, 15, 10, 4]>, fillcolor="#e88e4d"] ;
143 -> 149 ;
150 [label=<PULocationID &le; 143.5<br/>gini = 0.006<br/>samples = 33172<br/>value = [33080, 71, 10, 5, 6]>, fillcolor="#e5813a"] ;
142 -> 150 ;
151 [label=<gini = 0.003<br/>samples = 27136<br/>value = [27089, 31, 8, 4, 4]>, fillcolor="#e58139"] ;
150 -> 151 ;
156 [label=<gini = 0.015<br/>samples = 6036<br/>value = [5991, 40, 2, 1, 2]>, fillcolor="#e5823a"] ;
150 -> 156 ;
157 [label=<PULocationID &le; 161.5<br/>gini = 0.181<br/>samples = 75418<br/>value = [67873, 7330, 163, 28, 24]>, fillcolor="#e88f4f"] ;
141 -> 157 ;
158 [label=<dow &le; 1.5<br/>gini = 0.314<br/>samples = 25665<br/>value = [20693, 4832, 117, 11, 12]>, fillcolor="#eb9f68"] ;
157 -> 158 ;
159 [label=<gini = 0.153<br/>samples = 14716<br/>value = [13487, 1201, 18, 6, 4]>, fillcolor="#e78c4b"] ;
158 -> 159 ;
162 [label=<gini = 0.457<br/>samples = 10949<br/>value = [7206, 3631, 99, 5, 8]>, fillcolor="#f2c19e"] ;
158 -> 162 ;
163 [label=<PULocationID &le; 187.0<br/>gini = 0.098<br/>samples = 49753<br/>value = [47180, 2498, 46, 17, 12]>, fillcolor="#e68844"] ;
157 -> 163 ;
164 [label=<dow &le; 1.5<br/>gini = 0.119<br/>samples = 40172<br/>value = [37621, 2477, 45, 17, 12]>, fillcolor="#e78a46"] ;
163 -> 164 ;
165 [label=<PULocationID &le; 185.5<br/>gini = 0.083<br/>samples = 24227<br/>value = [23176, 1017, 20, 7, 7]>, fillcolor="#e68742"] ;
164 -> 165 ;
166 [label=<dow &le; 0.5<br/>gini = 0.047<br/>samples = 18483<br/>value = [18042, 419, 11, 5, 6]>, fillcolor="#e6843e"] ;
165 -> 166 ;
167 [label=<gini = 0.02<br/>samples = 8203<br/>value = [8122, 74, 4, 1, 2]>, fillcolor="#e5823b"] ;
166 -> 167 ;
168 [label=<gini = 0.068<br/>samples = 10280<br/>value = [9920, 345, 7, 4, 4]>, fillcolor="#e68640"] ;
166 -> 168 ;
169 [label=<gini = 0.19<br/>samples = 5744<br/>value = [5134, 598, 9, 2, 1]>, fillcolor="#e89050"] ;
165 -> 169 ;
170 [label=<PULocationID &le; 164.5<br/>gini = 0.171<br/>samples = 15945<br/>value = [14445, 1460, 25, 10, 5]>, fillcolor="#e88e4e"] ;
164 -> 170 ;
171 [label=<gini = 0.221<br/>samples = 9385<br/>value = [8205, 1147, 21, 9, 3]>, fillcolor="#e99355"] ;
170 -> 171 ;
172 [label=<gini = 0.093<br/>samples = 6560<br/>value = [6240, 313, 4, 1, 2]>, fillcolor="#e68743"] ;
170 -> 172 ;
173 [label=<gini = 0.005<br/>samples = 9581<br/>value = [9559, 21, 1, 0, 0]>, fillcolor="#e58139"] ;
163 -> 173 ;
174 [label=<PULocationID &le; 230.5<br/>gini = 0.357<br/>samples = 69653<br/>value = [53748, 15160, 641, 75, 29]>, fillcolor="#eda673"] ;
140 -> 174 ;
175 [label=<dow &le; 1.5<br/>gini = 0.4<br/>samples = 15205<br/>value = [3247, 11302, 578, 55, 23]>, fillcolor="#a6ed7a"] ;
174 -> 175 ;
176 [label=<gini = 0.485<br/>samples = 9145<br/>value = [3241, 5703, 167, 23, 11]>, fillcolor="#c8f4ac"] ;
175 -> 176 ;
177 [label=<gini = 0.142<br/>samples = 6060<br/>value = [6, 5599, 411, 32, 12]>, fillcolor="#86e749"] ;
175 -> 177 ;
178 [label=<dow &le; 1.5<br/>gini = 0.135<br/>samples = 54448<br/>value = [50501, 3858, 63, 20, 6]>, fillcolor="#e78b48"] ;
174 -> 178 ;
179 [label=<gini = 0.065<br/>samples = 33068<br/>value = [31953, 1090, 14, 9, 2]>, fillcolor="#e68540"] ;
178 -> 179 ;
186 [label=<gini = 0.231<br/>samples = 21380<br/>value = [18548, 2768, 49, 11, 4]>, fillcolor="#e99457"] ;
178 -> 186 ;
191 [label=<PULocationID &le; 47.5<br/>gini = 0.685<br/>samples = 835478<br/>value = [309857, 315950, 144458, 53631, 11582]>, fillcolor="#fdfffd"] ;
3 -> 191 ;
192 [label=<gini = 0.002<br/>samples = 27449<br/>value = [27422, 20, 1, 2, 4]>, fillcolor="#e58139"] ;
191 -> 192 ;
199 [label=<hour &le; 0.5<br/>gini = 0.688<br/>samples = 808029<br/>value = [282435, 315930, 144457, 53629, 11578]>, fillcolor="#f7fdf2"] ;
191 -> 199 ;
200 [label=<PULocationID &le; 234.5<br/>gini = 0.716<br/>samples = 501366<br/>value = [134365, 193569, 116353, 46879, 10200]>, fillcolor="#eafbdf"] ;
199 -> 200 ;
201 [label=<PULocationID &le; 229.5<br/>gini = 0.713<br/>samples = 428923<br/>value = [94640, 175497, 105245, 43760, 9781]>, fillcolor="#e2f9d4"] ;
200 -> 201 ;
202 [label=<PULocationID &le; 79.5<br/>gini = 0.69<br/>samples = 362749<br/>value = [86449, 161981, 78885, 28639, 6795]>, fillcolor="#dbf8c9"] ;
201 -> 202 ;
203 [label=<PULocationID &le; 78.5<br/>gini = 0.762<br/>samples = 74445<br/>value = [10271, 17996, 23439, 17683, 5056]>, fillcolor="#ecfcf9"] ;
202 -> 203 ;
204 [label=<PULocationID &le; 48.5<br/>gini = 0.714<br/>samples = 46288<br/>value = [10271, 16270, 14981, 4098, 668]>, fillcolor="#fafef7"] ;
203 -> 204 ;
205 [label=<gini = 0.586<br/>samples = 21685<br/>value = [0, 4820, 12543, 3725, 597]>, fillcolor="#a4f3e4"] ;
204 -> 205 ;
208 [label=<PULocationID &le; 67.5<br/>gini = 0.599<br/>samples = 24603<br/>value = [10271, 11450, 2438, 373, 71]>, fillcolor="#f4fdef"] ;
204 -> 208 ;
209 [label=<gini = 0.037<br/>samples = 6650<br/>value = [6526, 122, 1, 0, 1]>, fillcolor="#e5833d"] ;
208 -> 209 ;
210 [label=<dow &le; 3.5<br/>gini = 0.539<br/>samples = 17953<br/>value = [3745, 11328, 2437, 373, 70]>, fillcolor="#b9f195"] ;
208 -> 210 ;
211 [label=<gini = 0.44<br/>samples = 7886<br/>value = [1755, 5617, 435, 61, 18]>, fillcolor="#acef82"] ;
210 -> 211 ;
212 [label=<gini = 0.599<br/>samples = 10067<br/>value = [1990, 5711, 2002, 312, 52]>, fillcolor="#c2f3a4"] ;
210 -> 212 ;
213 [label=<gini = 0.649<br/>samples = 28157<br/>value = [0, 1726, 8458, 13585, 4388]>, fillcolor="#cccbf8"] ;
203 -> 213 ;
216 [label=<PULocationID &le; 147.5<br/>gini = 0.642<br/>samples = 288304<br/>value = [76178, 143985, 55446, 10956, 1739]>, fillcolor="#d5f7c0"] ;
202 -> 216 ;
217 [label=<PULocationID &le; 89.5<br/>gini = 0.585<br/>samples = 133180<br/>value = [55424, 64458, 11305, 1698, 295]>, fillcolor="#f0fce8"] ;
216 -> 217 ;
218 [label=<gini = 0.021<br/>samples = 8465<br/>value = [8376, 81, 3, 0, 5]>, fillcolor="#e5823b"] ;
217 -> 218 ;
219 [label=<PULocationID &le; 115.0<br/>gini = 0.583<br/>samples = 124715<br/>value = [47048, 64377, 11302, 1698, 290]>, fillcolor="#e2f9d3"] ;
217 -> 219 ;
220 [label=<PULocationID &le; 113.5<br/>gini = 0.547<br/>samples = 61268<br/>value = [10679, 38456, 10317, 1574, 242]>, fillcolor="#b7f192"] ;
219 -> 220 ;
221 [label=<dow &le; 3.5<br/>gini = 0.499<br/>samples = 45049<br/>value = [10676, 29774, 4049, 455, 95]>, fillcolor="#b6f191"] ;
220 -> 221 ;
222 [label=<PULocationID &le; 106.5<br/>gini = 0.514<br/>samples = 18977<br/>value = [7998, 10529, 390, 31, 29]>, fillcolor="#e1f9d1"] ;
221 -> 222 ;
223 [label=<gini = 0.512<br/>samples = 9314<br/>value = [5021, 4135, 133, 9, 16]>, fillcolor="#fbe9dd"] ;
222 -> 223 ;
224 [label=<gini = 0.467<br/>samples = 9663<br/>value = [2977, 6394, 257, 22, 13]>, fillcolor="#bcf29a"] ;
222 -> 224 ;
225 [label=<PULocationID &le; 100.5<br/>gini = 0.425<br/>samples = 26072<br/>value = [2678, 19245, 3659, 424, 66]>, fillcolor="#a3ed75"] ;
221 -> 225 ;
226 [label=<PULocationID &le; 90.5<br/>gini = 0.25<br/>samples = 12427<br/>value = [840, 10702, 789, 77, 19]>, fillcolor="#8fe956"] ;
225 -> 226 ;
227 [label=<gini = 0.101<br/>samples = 5612<br/>value = [9, 5313, 264, 18, 8]>, fillcolor="#82e644"] ;
226 -> 227 ;
228 [label=<gini = 0.354<br/>samples = 6815<br/>value = [831, 5389, 525, 59, 11]>, fillcolor="#9aeb68"] ;
226 -> 228 ;
229 [label=<PULocationID &le; 107.5<br/>gini = 0.545<br/>samples = 13645<br/>value = [1838, 8543, 2870, 347, 47]>, fillcolor="#baf197"] ;
225 -> 229 ;
230 [label=<gini = 0.52<br/>samples = 8351<br/>value = [127, 5065, 2776, 339, 44]>, fillcolor="#c9f4ae"] ;
229 -> 230 ;
231 [label=<gini = 0.464<br/>samples = 5294<br/>value = [1711, 3478, 94, 8, 3]>, fillcolor="#bef29d"] ;
229 -> 231 ;
232 [label=<gini = 0.559<br/>samples = 16219<br/>value = [3, 8682, 6268, 1119, 147]>, fillcolor="#dff9cf"] ;
220 -> 232 ;
235 [label=<PULocationID &le; 137.5<br/>gini = 0.504<br/>samples = 63447<br/>value = [36369, 25921, 985, 124, 48]>, fillcolor="#f8dcc8"] ;
219 -> 235 ;
236 [label=<PULocationID &le; 136.5<br/>gini = 0.113<br/>samples = 17871<br/>value = [16796, 1038, 21, 9, 7]>, fillcolor="#e78946"] ;
235 -> 236 ;
237 [label=<dow &le; 3.5<br/>gini = 0.019<br/>samples = 12002<br/>value = [11887, 96, 8, 5, 6]>, fillcolor="#e5823b"] ;
236 -> 237 ;
238 [label=<gini = 0.01<br/>samples = 5337<br/>value = [5310, 21, 2, 2, 2]>, fillcolor="#e5823a"] ;
237 -> 238 ;
239 [label=<gini = 0.026<br/>samples = 6665<br/>value = [6577, 75, 6, 3, 4]>, fillcolor="#e5833c"] ;
237 -> 239 ;
240 [label=<gini = 0.275<br/>samples = 5869<br/>value = [4909, 942, 13, 4, 1]>, fillcolor="#ea9a60"] ;
236 -> 240 ;
241 [label=<dow &le; 3.5<br/>gini = 0.517<br/>samples = 45576<br/>value = [19573, 24883, 964, 115, 41]>, fillcolor="#e4fad7"] ;
235 -> 241 ;
242 [label=<PULocationID &le; 141.5<br/>gini = 0.433<br/>samples = 19393<br/>value = [13383, 5841, 145, 15, 9]>, fillcolor="#f1b991"] ;
241 -> 242 ;
243 [label=<gini = 0.112<br/>samples = 8861<br/>value = [8336, 507, 10, 4, 4]>, fillcolor="#e78945"] ;
242 -> 243 ;
244 [label=<gini = 0.514<br/>samples = 10532<br/>value = [5047, 5334, 135, 11, 5]>, fillcolor="#f8fef5"] ;
242 -> 244 ;
245 [label=<PULocationID &le; 139.0<br/>gini = 0.414<br/>samples = 26183<br/>value = [6190, 19042, 819, 100, 32]>, fillcolor="#aaee80"] ;
241 -> 245 ;
246 [label=<gini = 0.017<br/>samples = 6595<br/>value = [8, 6540, 32, 8, 7]>, fillcolor="#7ce53b"] ;
245 -> 246 ;
247 [label=<PULocationID &le; 141.5<br/>gini = 0.491<br/>samples = 19588<br/>value = [6182, 12502, 787, 92, 25]>, fillcolor="#c1f3a2"] ;
245 -> 247 ;
248 [label=<gini = 0.387<br/>samples = 5852<br/>value = [4342, 1463, 32, 8, 7]>, fillcolor="#eeac7d"] ;
247 -> 248 ;
249 [label=<PULocationID &le; 142.5<br/>gini = 0.333<br/>samples = 13736<br/>value = [1840, 11039, 755, 84, 18]>, fillcolor="#99eb66"] ;
247 -> 249 ;
250 [label=<gini = 0.118<br/>samples = 5997<br/>value = [4, 5622, 333, 33, 5]>, fillcolor="#84e746"] ;
249 -> 250 ;
251 [label=<gini = 0.451<br/>samples = 7739<br/>value = [1836, 5417, 422, 51, 13]>, fillcolor="#afef87"] ;
249 -> 251 ;
252 [label=<PULocationID &le; 187.0<br/>gini = 0.635<br/>samples = 155124<br/>value = [20754, 79527, 44141, 9258, 1444]>, fillcolor="#d5f7c0"] ;
216 -> 252 ;
253 [label=<dow &le; 3.5<br/>gini = 0.597<br/>samples = 135316<br/>value = [7942, 72751, 43958, 9226, 1439]>, fillcolor="#d5f7c1"] ;
252 -> 253 ;
254 [label=<PULocationID &le; 161.5<br/>gini = 0.465<br/>samples = 58667<br/>value = [4463, 41226, 10912, 1761, 305]>, fillcolor="#abee81"] ;
253 -> 254 ;
255 [label=<PULocationID &le; 160.5<br/>gini = 0.62<br/>samples = 23375<br/>value = [2583, 12223, 7043, 1341, 185]>, fillcolor="#d5f7c0"] ;
254 -> 255 ;
256 [label=<PULocationID &le; 148.5<br/>gini = 0.487<br/>samples = 13314<br/>value = [2583, 9073, 1375, 218, 65]>, fillcolor="#afef87"] ;
255 -> 256 ;
257 [label=<gini = 0.333<br/>samples = 7759<br/>value = [0, 6193, 1315, 202, 49]>, fillcolor="#9beb69"] ;
256 -> 257 ;
258 [label=<gini = 0.515<br/>samples = 5555<br/>value = [2583, 2880, 60, 16, 16]>, fillcolor="#f2fceb"] ;
256 -> 258 ;
259 [label=<gini = 0.572<br/>samples = 10061<br/>value = [0, 3150, 5668, 1123, 120]>, fillcolor="#b7f6ea"] ;
255 -> 259 ;
260 [label=<PULocationID &le; 164.5<br/>gini = 0.31<br/>samples = 35292<br/>value = [1880, 29003, 3869, 420, 120]>, fillcolor="#95ea61"] ;
254 -> 260 ;
261 [label=<gini = 0.286<br/>samples = 21285<br/>value = [0, 17712, 3122, 358, 93]>, fillcolor="#95ea60"] ;
260 -> 261 ;
266 [label=<PULocationID &le; 185.5<br/>gini = 0.329<br/>samples = 14007<br/>value = [1880, 11291, 747, 62, 27]>, fillcolor="#99eb65"] ;
260 -> 266 ;
267 [label=<gini = 0.441<br/>samples = 7794<br/>value = [1877, 5505, 376, 29, 7]>, fillcolor="#aeef86"] ;
266 -> 267 ;
268 [label=<gini = 0.129<br/>samples = 6213<br/>value = [3, 5786, 371, 33, 20]>, fillcolor="#85e747"] ;
266 -> 268 ;
269 [label=<PULocationID &le; 148.5<br/>gini = 0.633<br/>samples = 76649<br/>value = [3479, 31525, 33046, 7465, 1134]>, fillcolor="#f8fefd"] ;
253 -> 269 ;
270 [label=<gini = 0.408<br/>samples = 12284<br/>value = [0, 19, 9026, 2772, 467]>, fillcolor="#7deed9"] ;
269 -> 270 ;
271 [label=<PULocationID &le; 158.5<br/>gini = 0.613<br/>samples = 64365<br/>value = [3479, 31506, 24020, 4693, 667]>, fillcolor="#e7fada"] ;
269 -> 271 ;
272 [label=<gini = 0.368<br/>samples = 7526<br/>value = [1118, 5859, 458, 60, 31]>, fillcolor="#9dec6d"] ;
271 -> 272 ;
273 [label=<PULocationID &le; 161.5<br/>gini = 0.616<br/>samples = 56839<br/>value = [2361, 25647, 23562, 4633, 636]>, fillcolor="#f7fdf3"] ;
271 -> 273 ;
274 [label=<gini = 0.458<br/>samples = 11274<br/>value = [21, 756, 7946, 2272, 279]>, fillcolor="#82efda"] ;
273 -> 274 ;
275 [label=<PULocationID &le; 163.5<br/>gini = 0.579<br/>samples = 45565<br/>value = [2340, 24891, 15616, 2361, 357]>, fillcolor="#d6f7c2"] ;
273 -> 275 ;
276 [label=<gini = 0.464<br/>samples = 16510<br/>value = [0, 11107, 4719, 568, 116]>, fillcolor="#b7f194"] ;
275 -> 276 ;
279 [label=<PULocationID &le; 164.5<br/>gini = 0.624<br/>samples = 29055<br/>value = [2340, 13784, 10897, 1793, 241]>, fillcolor="#eafbe0"] ;
275 -> 279 ;
280 [label=<gini = 0.569<br/>samples = 10226<br/>value = [0, 2923, 5911, 1251, 141]>, fillcolor="#aef4e7"] ;
279 -> 280 ;
281 [label=<PULocationID &le; 185.5<br/>gini = 0.581<br/>samples = 18829<br/>value = [2340, 10861, 4986, 542, 100]>, fillcolor="#c7f4ab"] ;
279 -> 281 ;
282 [label=<gini = 0.64<br/>samples = 10672<br/>value = [2340, 5349, 2602, 328, 53]>, fillcolor="#d2f6bc"] ;
281 -> 282 ;
283 [label=<gini = 0.457<br/>samples = 8157<br/>value = [0, 5512, 2384, 214, 47]>, fillcolor="#b7f194"] ;
281 -> 283 ;
284 [label=<PULocationID &le; 228.5<br/>gini = 0.465<br/>samples = 19808<br/>value = [12812, 6776, 183, 32, 5]>, fillcolor="#f3c5a3"] ;
252 -> 284 ;
285 [label=<gini = 0.117<br/>samples = 10537<br/>value = [9881, 634, 11, 9, 2]>, fillcolor="#e78946"] ;
284 -> 285 ;
286 [label=<gini = 0.461<br/>samples = 9271<br/>value = [2931, 6142, 172, 23, 3]>, fillcolor="#bcf29b"] ;
284 -> 286 ;
287 [label=<PULocationID &le; 230.5<br/>gini = 0.73<br/>samples = 66174<br/>value = [8191, 13516, 26360, 15121, 2986]>, fillcolor="#d3f9f2"] ;
201 -> 287 ;
288 [label=<gini = 0.58<br/>samples = 27738<br/>value = [0, 9, 13377, 11732, 2620]>, fillcolor="#ebfcf9"] ;
287 -> 288 ;
291 [label=<PULocationID &le; 233.5<br/>gini = 0.709<br/>samples = 38436<br/>value = [8191, 13507, 12983, 3389, 366]>, fillcolor="#fcfefb"] ;
287 -> 291 ;
292 [label=<PULocationID &le; 231.5<br/>gini = 0.538<br/>samples = 17581<br/>value = [8191, 8680, 586, 86, 38]>, fillcolor="#f8fef5"] ;
291 -> 292 ;
293 [label=<gini = 0.397<br/>samples = 11386<br/>value = [2115, 8565, 584, 85, 37]>, fillcolor="#a3ed75"] ;
292 -> 293 ;
294 [label=<gini = 0.038<br/>samples = 6195<br/>value = [6076, 115, 2, 1, 1]>, fillcolor="#e6833d"] ;
292 -> 294 ;
295 [label=<gini = 0.568<br/>samples = 20855<br/>value = [0, 4827, 12397, 3303, 328]>, fillcolor="#a1f3e4"] ;
291 -> 295 ;
298 [label=<PULocationID &le; 248.5<br/>gini = 0.612<br/>samples = 72443<br/>value = [39725, 18072, 11108, 3119, 419]>, fillcolor="#f5cdb0"] ;
200 -> 298 ;
299 [label=<PULocationID &le; 237.5<br/>gini = 0.381<br/>samples = 30047<br/>value = [22487, 7311, 208, 20, 21]>, fillcolor="#eeab7b"] ;
298 -> 299 ;
300 [label=<dow &le; 3.5<br/>gini = 0.514<br/>samples = 13244<br/>value = [6946, 6077, 195, 15, 11]>, fillcolor="#fcf0e7"] ;
299 -> 300 ;
301 [label=<gini = 0.405<br/>samples = 5797<br/>value = [4185, 1578, 28, 6, 0]>, fillcolor="#efb185"] ;
300 -> 301 ;
302 [label=<gini = 0.497<br/>samples = 7447<br/>value = [2761, 4499, 167, 9, 11]>, fillcolor="#cef5b6"] ;
300 -> 302 ;
303 [label=<PULocationID &le; 239.5<br/>gini = 0.139<br/>samples = 16803<br/>value = [15541, 1234, 13, 5, 10]>, fillcolor="#e78b49"] ;
299 -> 303 ;
304 [label=<gini = 0.166<br/>samples = 10506<br/>value = [9547, 950, 5, 2, 2]>, fillcolor="#e88e4d"] ;
303 -> 304 ;
305 [label=<gini = 0.092<br/>samples = 6297<br/>value = [5994, 284, 8, 3, 8]>, fillcolor="#e68743"] ;
303 -> 305 ;
306 [label=<PULocationID &le; 249.5<br/>gini = 0.699<br/>samples = 42396<br/>value = [17238, 10761, 10900, 3099, 398]>, fillcolor="#fae6d7"] ;
298 -> 306 ;
307 [label=<gini = 0.605<br/>samples = 20136<br/>value = [0, 5920, 10751, 3077, 388]>, fillcolor="#bcf6eb"] ;
306 -> 307 ;
310 [label=<PULocationID &le; 263.5<br/>gini = 0.353<br/>samples = 22260<br/>value = [17238, 4841, 149, 22, 10]>, fillcolor="#eca572"] ;
306 -> 310 ;
311 [label=<gini = 0.127<br/>samples = 14007<br/>value = [13051, 942, 11, 2, 1]>, fillcolor="#e78a47"] ;
310 -> 311 ;
314 [label=<gini = 0.519<br/>samples = 8253<br/>value = [4187, 3899, 138, 20, 9]>, fillcolor="#fdf7f2"] ;
310 -> 314 ;
315 [label=<PULocationID &le; 79.5<br/>gini = 0.599<br/>samples = 306663<br/>value = [148070, 122361, 28104, 6750, 1378]>, fillcolor="#fbede3"] ;
199 -> 315 ;
316 [label=<PULocationID &le; 78.5<br/>gini = 0.675<br/>samples = 51324<br/>value = [9340, 24306, 12640, 4244, 794]>, fillcolor="#d7f7c3"] ;
315 -> 316 ;
317 [label=<PULocationID &le; 48.5<br/>gini = 0.549<br/>samples = 31329<br/>value = [9340, 18651, 2744, 504, 90]>, fillcolor="#c7f4ab"] ;
316 -> 317 ;
318 [label=<gini = 0.337<br/>samples = 14122<br/>value = [4, 11244, 2363, 448, 63]>, fillcolor="#9beb69"] ;
317 -> 318 ;
321 [label=<dow &le; 3.5<br/>gini = 0.52<br/>samples = 17207<br/>value = [9336, 7407, 381, 56, 27]>, fillcolor="#fae6d8"] ;
317 -> 321 ;
322 [label=<gini = 0.378<br/>samples = 7179<br/>value = [5390, 1737, 40, 6, 6]>, fillcolor="#eeaa7a"] ;
321 -> 322 ;
323 [label=<gini = 0.524<br/>samples = 10028<br/>value = [3946, 5670, 341, 50, 21]>, fillcolor="#daf8c7"] ;
321 -> 323 ;
324 [label=<gini = 0.639<br/>samples = 19995<br/>value = [0, 5655, 9896, 3740, 704]>, fillcolor="#c4f7ee"] ;
316 -> 324 ;
327 [label=<PULocationID &le; 147.5<br/>gini = 0.554<br/>samples = 255339<br/>value = [138730, 98055, 15464, 2506, 584]>, fillcolor="#f8decc"] ;
315 -> 327 ;
328 [label=<dow &le; 3.5<br/>gini = 0.384<br/>samples = 77142<br/>value = [57853, 17841, 1203, 167, 78]>, fillcolor="#edaa79"] ;
327 -> 328 ;
329 [label=<PULocationID &le; 115.0<br/>gini = 0.146<br/>samples = 30403<br/>value = [27998, 2332, 46, 14, 13]>, fillcolor="#e78c4a"] ;
328 -> 329 ;
330 [label=<PULocationID &le; 112.5<br/>gini = 0.218<br/>samples = 17248<br/>value = [15105, 2081, 36, 14, 12]>, fillcolor="#e99355"] ;
329 -> 330 ;
331 [label=<PULocationID &le; 99.0<br/>gini = 0.123<br/>samples = 11355<br/>value = [10607, 725, 8, 9, 6]>, fillcolor="#e78a47"] ;
330 -> 331 ;
332 [label=<gini = 0.043<br/>samples = 5092<br/>value = [4981, 103, 3, 3, 2]>, fillcolor="#e6843d"] ;
331 -> 332 ;
333 [label=<gini = 0.183<br/>samples = 6263<br/>value = [5626, 622, 5, 6, 4]>, fillcolor="#e88f4f"] ;
331 -> 333 ;
334 [label=<gini = 0.364<br/>samples = 5893<br/>value = [4498, 1356, 28, 5, 6]>, fillcolor="#eda876"] ;
330 -> 334 ;
335 [label=<gini = 0.039<br/>samples = 13155<br/>value = [12893, 251, 10, 0, 1]>, fillcolor="#e6843d"] ;
329 -> 335 ;
338 [label=<PULocationID &le; 115.0<br/>gini = 0.481<br/>samples = 46739<br/>value = [29855, 15509, 1157, 153, 65]>, fillcolor="#f3c5a4"] ;
328 -> 338 ;
339 [label=<PULocationID &le; 113.5<br/>gini = 0.544<br/>samples = 25878<br/>value = [12469, 12205, 1026, 127, 51]>, fillcolor="#fefdfb"] ;
338 -> 339 ;
340 [label=<PULocationID &le; 99.5<br/>gini = 0.46<br/>samples = 19028<br/>value = [12469, 6338, 176, 25, 20]>, fillcolor="#f2c29f"] ;
339 -> 340 ;
341 [label=<gini = 0.271<br/>samples = 6952<br/>value = [5834, 1089, 22, 4, 3]>, fillcolor="#ea995f"] ;
340 -> 341 ;
342 [label=<gini = 0.509<br/>samples = 12076<br/>value = [6635, 5249, 154, 21, 17]>, fillcolor="#fae5d7"] ;
340 -> 342 ;
343 [label=<gini = 0.251<br/>samples = 6850<br/>value = [0, 5867, 850, 102, 31]>, fillcolor="#91e959"] ;
339 -> 343 ;
344 [label=<PULocationID &le; 143.5<br/>gini = 0.28<br/>samples = 20861<br/>value = [17386, 3304, 131, 26, 14]>, fillcolor="#ea9a60"] ;
338 -> 344 ;
345 [label=<PULocationID &le; 140.5<br/>gini = 0.064<br/>samples = 15580<br/>value = [15069, 487, 12, 6, 6]>, fillcolor="#e68540"] ;
344 -> 345 ;
346 [label=<gini = 0.017<br/>samples = 9521<br/>value = [9439, 67, 7, 4, 4]>, fillcolor="#e5823b"] ;
345 -> 346 ;
347 [label=<gini = 0.132<br/>samples = 6059<br/>value = [5630, 420, 5, 2, 2]>, fillcolor="#e78b48"] ;
345 -> 347 ;
348 [label=<gini = 0.522<br/>samples = 5281<br/>value = [2317, 2817, 119, 20, 8]>, fillcolor="#e9fbde"] ;
344 -> 348 ;
349 [label=<PULocationID &le; 164.5<br/>gini = 0.585<br/>samples = 178197<br/>value = [80877, 80214, 14261, 2339, 506]>, fillcolor="#fffefe"] ;
327 -> 349 ;
350 [label=<dow &le; 3.5<br/>gini = 0.532<br/>samples = 64593<br/>value = [15374, 40840, 6734, 1346, 299]>, fillcolor="#bbf299"] ;
349 -> 350 ;
351 [label=<PULocationID &le; 149.5<br/>gini = 0.521<br/>samples = 25930<br/>value = [12094, 13250, 467, 81, 38]>, fillcolor="#f4fdee"] ;
350 -> 351 ;
352 [label=<gini = 0.108<br/>samples = 5732<br/>value = [5, 5407, 263, 43, 14]>, fillcolor="#83e745"] ;
351 -> 352 ;
353 [label=<PULocationID &le; 161.5<br/>gini = 0.491<br/>samples = 20198<br/>value = [12089, 7843, 204, 38, 24]>, fillcolor="#f6d4bb"] ;
351 -> 353 ;
354 [label=<gini = 0.513<br/>samples = 8567<br/>value = [4504, 3926, 111, 16, 10]>, fillcolor="#fcefe6"] ;
353 -> 354 ;
355 [label=<gini = 0.461<br/>samples = 11631<br/>value = [7585, 3917, 93, 22, 14]>, fillcolor="#f3c3a1"] ;
353 -> 355 ;
356 [label=<PULocationID &le; 157.5<br/>gini = 0.456<br/>samples = 38663<br/>value = [3280, 27590, 6267, 1265, 261]>, fillcolor="#a8ee7d"] ;
350 -> 356 ;
357 [label=<gini = 0.654<br/>samples = 10771<br/>value = [778, 4069, 4662, 1083, 179]>, fillcolor="#edfdfa"] ;
356 -> 357 ;
358 [label=<PULocationID &le; 161.5<br/>gini = 0.277<br/>samples = 27892<br/>value = [2502, 23521, 1605, 182, 82]>, fillcolor="#92e95b"] ;
356 -> 358 ;
359 [label=<PULocationID &le; 160.5<br/>gini = 0.111<br/>samples = 11156<br/>value = [49, 10509, 494, 73, 31]>, fillcolor="#83e745"] ;
358 -> 359 ;
360 [label=<gini = 0.117<br/>samples = 5538<br/>value = [42, 5199, 226, 47, 24]>, fillcolor="#83e746"] ;
359 -> 360 ;
361 [label=<gini = 0.104<br/>samples = 5618<br/>value = [7, 5310, 268, 26, 7]>, fillcolor="#83e644"] ;
359 -> 361 ;
362 [label=<PULocationID &le; 163.5<br/>gini = 0.37<br/>samples = 16736<br/>value = [2453, 13012, 1111, 109, 51]>, fillcolor="#9dec6d"] ;
358 -> 362 ;
363 [label=<gini = 0.409<br/>samples = 9756<br/>value = [2453, 7082, 176, 24, 21]>, fillcolor="#abef81"] ;
362 -> 363 ;
364 [label=<gini = 0.26<br/>samples = 6980<br/>value = [0, 5930, 935, 85, 30]>, fillcolor="#92ea5b"] ;
362 -> 364 ;
365 [label=<PULocationID &le; 249.5<br/>gini = 0.543<br/>samples = 113604<br/>value = [65503, 39374, 7527, 993, 207]>, fillcolor="#f6d3b9"] ;
349 -> 365 ;
366 [label=<PULocationID &le; 248.5<br/>gini = 0.569<br/>samples = 99883<br/>value = [52216, 38951, 7521, 990, 205]>, fillcolor="#f9e4d4"] ;
365 -> 366 ;
367 [label=<PULocationID &le; 234.5<br/>gini = 0.532<br/>samples = 86449<br/>value = [50956, 29616, 5074, 667, 136]>, fillcolor="#f5d0b5"] ;
366 -> 367 ;
368 [label=<PULocationID &le; 229.5<br/>gini = 0.573<br/>samples = 69631<br/>value = [34310, 29456, 5069, 665, 131]>, fillcolor="#fcf0e7"] ;
367 -> 368 ;
369 [label=<PULocationID &le; 187.0<br/>gini = 0.376<br/>samples = 30902<br/>value = [23281, 7358, 210, 40, 13]>, fillcolor="#edaa79"] ;
368 -> 369 ;
370 [label=<dow &le; 3.5<br/>gini = 0.475<br/>samples = 18666<br/>value = [11772, 6654, 198, 31, 11]>, fillcolor="#f4c9ab"] ;
369 -> 370 ;
371 [label=<gini = 0.181<br/>samples = 7644<br/>value = [6878, 738, 20, 7, 1]>, fillcolor="#e88f4f"] ;
370 -> 371 ;
372 [label=<PULocationID &le; 170.5<br/>gini = 0.514<br/>samples = 11022<br/>value = [4894, 5916, 178, 24, 10]>, fillcolor="#e9fbde"] ;
370 -> 372 ;
373 [label=<gini = 0.508<br/>samples = 5750<br/>value = [2271, 3333, 121, 18, 7]>, fillcolor="#d7f7c3"] ;
372 -> 373 ;
374 [label=<gini = 0.512<br/>samples = 5272<br/>value = [2623, 2583, 57, 6, 3]>, fillcolor="#fffdfc"] ;
372 -> 374 ;
375 [label=<gini = 0.112<br/>samples = 12236<br/>value = [11509, 704, 12, 9, 2]>, fillcolor="#e78945"] ;
369 -> 375 ;
378 [label=<PULocationID &le; 230.5<br/>gini = 0.577<br/>samples = 38729<br/>value = [11029, 22098, 4859, 625, 118]>, fillcolor="#caf5b0"] ;
368 -> 378 ;
379 [label=<gini = 0.429<br/>samples = 15688<br/>value = [3, 11201, 3859, 536, 89]>, fillcolor="#adef84"] ;
378 -> 379 ;
382 [label=<PULocationID &le; 233.5<br/>gini = 0.545<br/>samples = 23041<br/>value = [11026, 10897, 1000, 89, 29]>, fillcolor="#fffefd"] ;
378 -> 382 ;
383 [label=<gini = 0.252<br/>samples = 11274<br/>value = [9622, 1597, 38, 10, 7]>, fillcolor="#e9975b"] ;
382 -> 383 ;
384 [label=<gini = 0.354<br/>samples = 11767<br/>value = [1404, 9300, 962, 79, 22]>, fillcolor="#9aeb68"] ;
382 -> 384 ;
385 [label=<gini = 0.02<br/>samples = 16818<br/>value = [16646, 160, 5, 2, 5]>, fillcolor="#e5823b"] ;
367 -> 385 ;
388 [label=<dow &le; 3.5<br/>gini = 0.475<br/>samples = 13434<br/>value = [1260, 9335, 2447, 323, 69]>, fillcolor="#acef83"] ;
366 -> 388 ;
389 [label=<gini = 0.41<br/>samples = 5022<br/>value = [1260, 3643, 100, 18, 1]>, fillcolor="#abef82"] ;
388 -> 389 ;
390 [label=<gini = 0.463<br/>samples = 8412<br/>value = [0, 5692, 2347, 305, 68]>, fillcolor="#b6f192"] ;
388 -> 390 ;
391 [label=<gini = 0.061<br/>samples = 13721<br/>value = [13287, 423, 6, 3, 2]>, fillcolor="#e6853f"] ;
365 -> 391 ;
394 [label=<PULocationID &le; 79.5<br/>gini = 0.164<br/>samples = 1345553<br/>value = [1225385, 112279, 6186, 1140, 563]>, fillcolor="#e88d4c"] ;
2 -> 394 ;
395 [label=<dow &le; 3.5<br/>gini = 0.341<br/>samples = 289987<br/>value = [228371, 56972, 3771, 676, 197]>, fillcolor="#eca26d"] ;
394 -> 395 ;
396 [label=<PULocationID &le; 47.5<br/>gini = 0.242<br/>samples = 210440<br/>value = [180986, 28566, 698, 121, 69]>, fillcolor="#e99559"] ;
395 -> 396 ;
397 [label=<gini = 0.001<br/>samples = 42135<br/>value = [42121, 9, 5, 0, 0]>, fillcolor="#e58139"] ;
396 -> 397 ;
408 [label=<PULocationID &le; 48.5<br/>gini = 0.29<br/>samples = 168305<br/>value = [138865, 28557, 693, 121, 69]>, fillcolor="#ea9c63"] ;
396 -> 408 ;
409 [label=<hour &le; 4.5<br/>gini = 0.459<br/>samples = 55088<br/>value = [35932, 18698, 382, 47, 29]>, fillcolor="#f3c3a1"] ;
408 -> 409 ;
410 [label=<dow &le; 2.5<br/>gini = 0.253<br/>samples = 34338<br/>value = [29274, 4884, 131, 31, 18]>, fillcolor="#e9975b"] ;
409 -> 410 ;
411 [label=<hour &le; 2.5<br/>gini = 0.201<br/>samples = 24326<br/>value = [21586, 2655, 52, 22, 11]>, fillcolor="#e89152"] ;
410 -> 411 ;
412 [label=<gini = 0.255<br/>samples = 9171<br/>value = [7805, 1313, 41, 8, 4]>, fillcolor="#ea975b"] ;
411 -> 412 ;
413 [label=<dow &le; 0.5<br/>gini = 0.165<br/>samples = 15155<br/>value = [13781, 1342, 11, 14, 7]>, fillcolor="#e88e4d"] ;
411 -> 413 ;
414 [label=<gini = 0.216<br/>samples = 5593<br/>value = [4906, 669, 7, 8, 3]>, fillcolor="#e99355"] ;
413 -> 414 ;
415 [label=<gini = 0.134<br/>samples = 9562<br/>value = [8875, 673, 4, 6, 4]>, fillcolor="#e78b48"] ;
413 -> 415 ;
416 [label=<gini = 0.361<br/>samples = 10012<br/>value = [7688, 2229, 79, 9, 7]>, fillcolor="#eda774"] ;
410 -> 416 ;
417 [label=<dow &le; 1.5<br/>gini = 0.454<br/>samples = 20750<br/>value = [6658, 13814, 251, 16, 11]>, fillcolor="#bcf29a"] ;
409 -> 417 ;
418 [label=<gini = 0.468<br/>samples = 10040<br/>value = [3575, 6388, 62, 9, 6]>, fillcolor="#c6f4a9"] ;
417 -> 418 ;
419 [label=<dow &le; 2.5<br/>gini = 0.436<br/>samples = 10710<br/>value = [3083, 7426, 189, 7, 5]>, fillcolor="#b4f08e"] ;
417 -> 419 ;
420 [label=<gini = 0.434<br/>samples = 5316<br/>value = [1555, 3685, 73, 1, 2]>, fillcolor="#b4f08f"] ;
419 -> 420 ;
421 [label=<gini = 0.438<br/>samples = 5394<br/>value = [1528, 3741, 116, 6, 3]>, fillcolor="#b3f08e"] ;
419 -> 421 ;
422 [label=<hour &le; 2.5<br/>gini = 0.166<br/>samples = 113217<br/>value = [102933, 9859, 311, 74, 40]>, fillcolor="#e88e4d"] ;
408 -> 422 ;
423 [label=<PULocationID &le; 78.5<br/>gini = 0.366<br/>samples = 33468<br/>value = [25553, 7593, 252, 49, 21]>, fillcolor="#eda876"] ;
422 -> 423 ;
424 [label=<dow &le; 2.5<br/>gini = 0.129<br/>samples = 17334<br/>value = [16139, 1146, 33, 8, 8]>, fillcolor="#e78a48"] ;
423 -> 424 ;
425 [label=<gini = 0.065<br/>samples = 11771<br/>value = [11378, 370, 14, 5, 4]>, fillcolor="#e68540"] ;
424 -> 425 ;
426 [label=<gini = 0.248<br/>samples = 5563<br/>value = [4761, 776, 19, 3, 4]>, fillcolor="#e9965a"] ;
424 -> 426 ;
427 [label=<dow &le; 1.5<br/>gini = 0.5<br/>samples = 16134<br/>value = [9414, 6447, 219, 41, 13]>, fillcolor="#f7d8c2"] ;
423 -> 427 ;
428 [label=<gini = 0.365<br/>samples = 6926<br/>value = [5282, 1594, 37, 9, 4]>, fillcolor="#eda876"] ;
427 -> 428 ;
429 [label=<gini = 0.52<br/>samples = 9208<br/>value = [4132, 4853, 182, 32, 9]>, fillcolor="#ecfbe3"] ;
427 -> 429 ;
430 [label=<PULocationID &le; 78.5<br/>gini = 0.058<br/>samples = 79749<br/>value = [77380, 2266, 59, 25, 19]>, fillcolor="#e6853f"] ;
422 -> 430 ;
431 [label=<hour &le; 3.5<br/>gini = 0.018<br/>samples = 48600<br/>value = [48152, 416, 17, 9, 6]>, fillcolor="#e5823b"] ;
430 -> 431 ;
432 [label=<gini = 0.052<br/>samples = 13605<br/>value = [13241, 346, 9, 6, 3]>, fillcolor="#e6843e"] ;
431 -> 432 ;
435 [label=<gini = 0.005<br/>samples = 34995<br/>value = [34911, 70, 8, 3, 3]>, fillcolor="#e58139"] ;
431 -> 435 ;
444 [label=<hour &le; 3.5<br/>gini = 0.116<br/>samples = 31149<br/>value = [29228, 1850, 42, 16, 13]>, fillcolor="#e78946"] ;
430 -> 444 ;
445 [label=<dow &le; 1.5<br/>gini = 0.201<br/>samples = 11361<br/>value = [10078, 1238, 31, 7, 7]>, fillcolor="#e89152"] ;
444 -> 445 ;
446 [label=<gini = 0.115<br/>samples = 5076<br/>value = [4767, 297, 8, 2, 2]>, fillcolor="#e78946"] ;
445 -> 446 ;
447 [label=<gini = 0.263<br/>samples = 6285<br/>value = [5311, 941, 23, 5, 5]>, fillcolor="#ea985d"] ;
445 -> 447 ;
448 [label=<hour &le; 4.5<br/>gini = 0.062<br/>samples = 19788<br/>value = [19150, 612, 11, 9, 6]>, fillcolor="#e68540"] ;
444 -> 448 ;
449 [label=<gini = 0.106<br/>samples = 10062<br/>value = [9497, 545, 10, 7, 3]>, fillcolor="#e78845"] ;
448 -> 449 ;
450 [label=<gini = 0.015<br/>samples = 9726<br/>value = [9653, 67, 1, 2, 3]>, fillcolor="#e5823a"] ;
448 -> 450 ;
451 [label=<PULocationID &le; 47.5<br/>gini = 0.516<br/>samples = 79547<br/>value = [47385, 28406, 3073, 555, 128]>, fillcolor="#f5d0b6"] ;
395 -> 451 ;
452 [label=<gini = 0.001<br/>samples = 14722<br/>value = [14716, 2, 3, 0, 1]>, fillcolor="#e58139"] ;
451 -> 452 ;
455 [label=<hour &le; 3.5<br/>gini = 0.552<br/>samples = 64825<br/>value = [32669, 28404, 3070, 555, 127]>, fillcolor="#fcf0e8"] ;
451 -> 455 ;
456 [label=<PULocationID &le; 78.5<br/>gini = 0.546<br/>samples = 37084<br/>value = [11672, 21907, 2858, 534, 113]>, fillcolor="#caf5af"] ;
455 -> 456 ;
457 [label=<hour &le; 2.5<br/>gini = 0.527<br/>samples = 23809<br/>value = [10876, 12228, 576, 84, 45]>, fillcolor="#f1fcea"] ;
456 -> 457 ;
458 [label=<PULocationID &le; 48.5<br/>gini = 0.473<br/>samples = 13323<br/>value = [4002, 8791, 445, 63, 22]>, fillcolor="#bbf299"] ;
457 -> 458 ;
459 [label=<gini = 0.205<br/>samples = 5363<br/>value = [263, 4767, 286, 36, 11]>, fillcolor="#8ae850"] ;
458 -> 459 ;
460 [label=<gini = 0.523<br/>samples = 7960<br/>value = [3739, 4024, 159, 27, 11]>, fillcolor="#f6fdf2"] ;
458 -> 460 ;
461 [label=<PULocationID &le; 67.5<br/>gini = 0.463<br/>samples = 10486<br/>value = [6874, 3437, 131, 21, 23]>, fillcolor="#f2c29e"] ;
457 -> 461 ;
462 [label=<gini = 0.409<br/>samples = 5375<br/>value = [3890, 1392, 70, 13, 10]>, fillcolor="#efb083"] ;
461 -> 462 ;
463 [label=<gini = 0.499<br/>samples = 5111<br/>value = [2984, 2045, 61, 8, 13]>, fillcolor="#f7d8c2"] ;
461 -> 463 ;
464 [label=<hour &le; 2.5<br/>gini = 0.434<br/>samples = 13275<br/>value = [796, 9679, 2282, 450, 68]>, fillcolor="#a6ee7a"] ;
456 -> 464 ;
465 [label=<gini = 0.465<br/>samples = 8081<br/>value = [0, 5515, 2085, 422, 59]>, fillcolor="#b3f08e"] ;
464 -> 465 ;
466 [label=<gini = 0.332<br/>samples = 5194<br/>value = [796, 4164, 197, 28, 9]>, fillcolor="#9aeb67"] ;
464 -> 466 ;
467 [label=<PULocationID &le; 48.5<br/>gini = 0.372<br/>samples = 27741<br/>value = [20997, 6497, 212, 21, 14]>, fillcolor="#eda978"] ;
455 -> 467 ;
468 [label=<gini = 0.516<br/>samples = 9337<br/>value = [4200, 4956, 167, 8, 6]>, fillcolor="#ecfbe2"] ;
467 -> 468 ;
469 [label=<PULocationID &le; 78.5<br/>gini = 0.16<br/>samples = 18404<br/>value = [16797, 1541, 45, 13, 8]>, fillcolor="#e78d4c"] ;
467 -> 469 ;
470 [label=<gini = 0.042<br/>samples = 11363<br/>value = [11119, 228, 6, 4, 6]>, fillcolor="#e6843d"] ;
469 -> 470 ;
473 [label=<gini = 0.315<br/>samples = 7041<br/>value = [5678, 1313, 39, 9, 2]>, fillcolor="#eb9f68"] ;
469 -> 473 ;
474 [label=<dow &le; 3.5<br/>gini = 0.105<br/>samples = 1055566<br/>value = [997014, 55307, 2415, 464, 366]>, fillcolor="#e78845"] ;
394 -> 474 ;
475 [label=<PULocationID &le; 100.5<br/>gini = 0.053<br/>samples = 764930<br/>value = [744094, 20134, 424, 117, 161]>, fillcolor="#e6853f"] ;
474 -> 475 ;
476 [label=<gini = 0.186<br/>samples = 67195<br/>value = [60242, 6900, 41, 3, 9]>, fillcolor="#e89050"] ;
475 -> 476 ;
493 [label=<hour &le; 2.5<br/>gini = 0.039<br/>samples = 697735<br/>value = [683852, 13234, 383, 114, 152]>, fillcolor="#e6843d"] ;
475 -> 493 ;
494 [label=<dow &le; 2.5<br/>gini = 0.084<br/>samples = 180464<br/>value = [172580, 7508, 242, 66, 68]>, fillcolor="#e68742"] ;
493 -> 494 ;
495 [label=<PULocationID &le; 229.5<br/>gini = 0.052<br/>samples = 121214<br/>value = [117978, 3082, 96, 34, 24]>, fillcolor="#e6843e"] ;
494 -> 495 ;
496 [label=<dow &le; 1.5<br/>gini = 0.026<br/>samples = 76975<br/>value = [75954, 959, 35, 13, 14]>, fillcolor="#e5833c"] ;
495 -> 496 ;
497 [label=<gini = 0.009<br/>samples = 46352<br/>value = [46132, 197, 15, 1, 7]>, fillcolor="#e5823a"] ;
496 -> 497 ;
510 [label=<PULocationID &le; 148.5<br/>gini = 0.051<br/>samples = 30623<br/>value = [29822, 762, 20, 12, 7]>, fillcolor="#e6843e"] ;
496 -> 510 ;
511 [label=<gini = 0.082<br/>samples = 15095<br/>value = [14446, 618, 16, 11, 4]>, fillcolor="#e68742"] ;
510 -> 511 ;
516 [label=<gini = 0.019<br/>samples = 15528<br/>value = [15376, 144, 4, 1, 3]>, fillcolor="#e5823b"] ;
510 -> 516 ;
519 [label=<PULocationID &le; 230.5<br/>gini = 0.095<br/>samples = 44239<br/>value = [42024, 2123, 61, 21, 10]>, fillcolor="#e68843"] ;
495 -> 519 ;
520 [label=<gini = 0.306<br/>samples = 9580<br/>value = [7791, 1735, 41, 10, 3]>, fillcolor="#eb9e66"] ;
519 -> 520 ;
521 [label=<PULocationID &le; 248.5<br/>gini = 0.024<br/>samples = 34659<br/>value = [34233, 388, 20, 11, 7]>, fillcolor="#e5833b"] ;
519 -> 521 ;
522 [label=<gini = 0.004<br/>samples = 18960<br/>value = [18923, 30, 5, 1, 1]>, fillcolor="#e58139"] ;
521 -> 522 ;
525 [label=<PULocationID &le; 249.5<br/>gini = 0.048<br/>samples = 15699<br/>value = [15310, 358, 15, 10, 6]>, fillcolor="#e6843e"] ;
521 -> 525 ;
526 [label=<gini = 0.099<br/>samples = 7351<br/>value = [6968, 355, 14, 9, 5]>, fillcolor="#e68844"] ;
525 -> 526 ;
527 [label=<gini = 0.001<br/>samples = 8348<br/>value = [8342, 3, 1, 1, 1]>, fillcolor="#e58139"] ;
525 -> 527 ;
528 [label=<PULocationID &le; 147.5<br/>gini = 0.145<br/>samples = 59250<br/>value = [54602, 4426, 146, 32, 44]>, fillcolor="#e78c4a"] ;
494 -> 528 ;
529 [label=<gini = 0.012<br/>samples = 12485<br/>value = [12410, 58, 7, 3, 7]>, fillcolor="#e5823a"] ;
528 -> 529 ;
532 [label=<PULocationID &le; 158.5<br/>gini = 0.177<br/>samples = 46765<br/>value = [42192, 4368, 139, 29, 37]>, fillcolor="#e88f4e"] ;
528 -> 532 ;
533 [label=<gini = 0.366<br/>samples = 6696<br/>value = [5116, 1498, 56, 14, 12]>, fillcolor="#eda775"] ;
532 -> 533 ;
534 [label=<PULocationID &le; 229.5<br/>gini = 0.139<br/>samples = 40069<br/>value = [37076, 2870, 83, 15, 25]>, fillcolor="#e78b49"] ;
532 -> 534 ;
535 [label=<PULocationID &le; 164.5<br/>gini = 0.048<br/>samples = 17208<br/>value = [16784, 388, 22, 5, 9]>, fillcolor="#e6843e"] ;
534 -> 535 ;
536 [label=<gini = 0.077<br/>samples = 9299<br/>value = [8929, 341, 17, 5, 7]>, fillcolor="#e68641"] ;
535 -> 536 ;
537 [label=<gini = 0.014<br/>samples = 7909<br/>value = [7855, 47, 5, 0, 2]>, fillcolor="#e5823a"] ;
535 -> 537 ;
538 [label=<PULocationID &le; 231.5<br/>gini = 0.2<br/>samples = 22861<br/>value = [20292, 2482, 61, 10, 16]>, fillcolor="#e89152"] ;
534 -> 538 ;
539 [label=<gini = 0.413<br/>samples = 6379<br/>value = [4562, 1757, 46, 5, 9]>, fillcolor="#efb387"] ;
538 -> 539 ;
540 [label=<PULocationID &le; 237.5<br/>gini = 0.087<br/>samples = 16482<br/>value = [15730, 725, 15, 5, 7]>, fillcolor="#e68742"] ;
538 -> 540 ;
541 [label=<gini = 0.111<br/>samples = 5341<br/>value = [5027, 306, 6, 2, 0]>, fillcolor="#e78945"] ;
540 -> 541 ;
542 [label=<gini = 0.076<br/>samples = 11141<br/>value = [10703, 419, 9, 3, 7]>, fillcolor="#e68641"] ;
540 -> 542 ;
543 [label=<PULocationID &le; 185.5<br/>gini = 0.023<br/>samples = 517271<br/>value = [511272, 5726, 141, 48, 84]>, fillcolor="#e5823b"] ;
493 -> 543 ;
544 [label=<dow &le; 2.5<br/>gini = 0.008<br/>samples = 256492<br/>value = [255515, 868, 50, 15, 44]>, fillcolor="#e5813a"] ;
543 -> 544 ;
545 [label=<dow &le; 1.5<br/>gini = 0.004<br/>samples = 184046<br/>value = [183643, 342, 21, 8, 32]>, fillcolor="#e58139"] ;
544 -> 545 ;
546 [label=<gini = 0.003<br/>samples = 116656<br/>value = [116496, 129, 9, 3, 19]>, fillcolor="#e58139"] ;
545 -> 546 ;
575 [label=<PULocationID &le; 169.5<br/>gini = 0.007<br/>samples = 67390<br/>value = [67147, 213, 12, 5, 13]>, fillcolor="#e5813a"] ;
545 -> 575 ;
576 [label=<gini = 0.006<br/>samples = 61579<br/>value = [61395, 158, 11, 3, 12]>, fillcolor="#e5813a"] ;
575 -> 576 ;
593 [label=<gini = 0.02<br/>samples = 5811<br/>value = [5752, 55, 1, 2, 1]>, fillcolor="#e5823b"] ;
575 -> 593 ;
594 [label=<hour &le; 3.5<br/>gini = 0.016<br/>samples = 72446<br/>value = [71872, 526, 29, 7, 12]>, fillcolor="#e5823b"] ;
544 -> 594 ;
595 [label=<gini = 0.039<br/>samples = 19462<br/>value = [19075, 363, 15, 3, 6]>, fillcolor="#e6843d"] ;
594 -> 595 ;
600 [label=<gini = 0.007<br/>samples = 52984<br/>value = [52797, 163, 14, 4, 6]>, fillcolor="#e5813a"] ;
594 -> 600 ;
615 [label=<PULocationID &le; 187.0<br/>gini = 0.038<br/>samples = 260779<br/>value = [255757, 4858, 91, 33, 40]>, fillcolor="#e6833d"] ;
543 -> 615 ;
616 [label=<hour &le; 4.5<br/>gini = 0.2<br/>samples = 27959<br/>value = [24807, 3126, 15, 5, 6]>, fillcolor="#e89152"] ;
615 -> 616 ;
617 [label=<gini = 0.005<br/>samples = 10228<br/>value = [10202, 22, 0, 1, 3]>, fillcolor="#e5813a"] ;
616 -> 617 ;
620 [label=<gini = 0.291<br/>samples = 17731<br/>value = [14605, 3104, 15, 4, 3]>, fillcolor="#eb9c63"] ;
616 -> 620 ;
623 [label=<PULocationID &le; 230.5<br/>gini = 0.016<br/>samples = 232820<br/>value = [230950, 1732, 76, 28, 34]>, fillcolor="#e5823b"] ;
615 -> 623 ;
624 [label=<PULocationID &le; 229.5<br/>gini = 0.042<br/>samples = 58756<br/>value = [57495, 1182, 43, 18, 18]>, fillcolor="#e6843d"] ;
623 -> 624 ;
625 [label=<gini = 0.001<br/>samples = 29142<br/>value = [29134, 5, 1, 1, 1]>, fillcolor="#e58139"] ;
624 -> 625 ;
632 [label=<hour &le; 4.5<br/>gini = 0.081<br/>samples = 29614<br/>value = [28361, 1177, 42, 17, 17]>, fillcolor="#e68742"] ;
624 -> 632 ;
633 [label=<dow &le; 2.5<br/>gini = 0.115<br/>samples = 19446<br/>value = [18256, 1122, 39, 14, 15]>, fillcolor="#e78946"] ;
632 -> 633 ;
634 [label=<dow &le; 1.5<br/>gini = 0.072<br/>samples = 13478<br/>value = [12976, 466, 20, 8, 8]>, fillcolor="#e68641"] ;
633 -> 634 ;
635 [label=<gini = 0.042<br/>samples = 8371<br/>value = [8190, 162, 11, 4, 4]>, fillcolor="#e6843d"] ;
634 -> 635 ;
636 [label=<gini = 0.118<br/>samples = 5107<br/>value = [4786, 304, 9, 4, 4]>, fillcolor="#e78946"] ;
634 -> 636 ;
637 [label=<gini = 0.205<br/>samples = 5968<br/>value = [5280, 656, 19, 6, 7]>, fillcolor="#e89153"] ;
633 -> 637 ;
638 [label=<gini = 0.012<br/>samples = 10168<br/>value = [10105, 55, 3, 3, 2]>, fillcolor="#e5823a"] ;
632 -> 638 ;
639 [label=<hour &le; 3.5<br/>gini = 0.007<br/>samples = 174064<br/>value = [173455, 550, 33, 10, 16]>, fillcolor="#e5813a"] ;
623 -> 639 ;
640 [label=<gini = 0.015<br/>samples = 36828<br/>value = [36559, 240, 20, 3, 6]>, fillcolor="#e5823a"] ;
639 -> 640 ;
649 [label=<PULocationID &le; 235.5<br/>gini = 0.005<br/>samples = 137236<br/>value = [136896, 310, 13, 7, 10]>, fillcolor="#e58139"] ;
639 -> 649 ;
650 [label=<gini = 0.001<br/>samples = 28248<br/>value = [28230, 15, 1, 0, 2]>, fillcolor="#e58139"] ;
649 -> 650 ;
657 [label=<PULocationID &le; 236.5<br/>gini = 0.006<br/>samples = 108988<br/>value = [108666, 295, 12, 7, 8]>, fillcolor="#e5813a"] ;
649 -> 657 ;
658 [label=<gini = 0.016<br/>samples = 16042<br/>value = [15912, 125, 3, 0, 2]>, fillcolor="#e5823b"] ;
657 -> 658 ;
661 [label=<hour &le; 5.5<br/>gini = 0.004<br/>samples = 92946<br/>value = [92754, 170, 9, 7, 6]>, fillcolor="#e58139"] ;
657 -> 661 ;
662 [label=<PULocationID &le; 262.5<br/>gini = 0.005<br/>samples = 73030<br/>value = [72852, 157, 9, 6, 6]>, fillcolor="#e58139"] ;
661 -> 662 ;
663 [label=<PULocationID &le; 249.5<br/>gini = 0.004<br/>samples = 55656<br/>value = [55547, 93, 5, 6, 5]>, fillcolor="#e58139"] ;
662 -> 663 ;
664 [label=<PULocationID &le; 248.5<br/>gini = 0.005<br/>samples = 43819<br/>value = [43714, 89, 5, 6, 5]>, fillcolor="#e58139"] ;
663 -> 664 ;
665 [label=<gini = 0.004<br/>samples = 32317<br/>value = [32255, 51, 3, 4, 4]>, fillcolor="#e58139"] ;
664 -> 665 ;
674 [label=<gini = 0.007<br/>samples = 11502<br/>value = [11459, 38, 2, 2, 1]>, fillcolor="#e5813a"] ;
664 -> 674 ;
677 [label=<gini = 0.001<br/>samples = 11837<br/>value = [11833, 4, 0, 0, 0]>, fillcolor="#e58139"] ;
663 -> 677 ;
680 [label=<gini = 0.008<br/>samples = 17374<br/>value = [17305, 64, 4, 0, 1]>, fillcolor="#e5823a"] ;
662 -> 680 ;
685 [label=<gini = 0.001<br/>samples = 19916<br/>value = [19902, 13, 0, 1, 0]>, fillcolor="#e58139"] ;
661 -> 685 ;
690 [label=<hour &le; 2.5<br/>gini = 0.228<br/>samples = 290636<br/>value = [252920, 35173, 1991, 347, 205]>, fillcolor="#e99456"] ;
474 -> 690 ;
691 [label=<PULocationID &le; 147.5<br/>gini = 0.421<br/>samples = 95136<br/>value = [67887, 25117, 1727, 274, 131]>, fillcolor="#efb286"] ;
690 -> 691 ;
692 [label=<PULocationID &le; 115.0<br/>gini = 0.184<br/>samples = 29151<br/>value = [26173, 2855, 88, 18, 17]>, fillcolor="#e88f4f"] ;
691 -> 692 ;
693 [label=<PULocationID &le; 112.5<br/>gini = 0.266<br/>samples = 16247<br/>value = [13706, 2448, 69, 13, 11]>, fillcolor="#ea985d"] ;
692 -> 693 ;
694 [label=<gini = 0.13<br/>samples = 10683<br/>value = [9937, 718, 16, 10, 2]>, fillcolor="#e78a48"] ;
693 -> 694 ;
695 [label=<gini = 0.444<br/>samples = 5564<br/>value = [3769, 1730, 53, 3, 9]>, fillcolor="#f1bc96"] ;
693 -> 695 ;
696 [label=<PULocationID &le; 141.5<br/>gini = 0.066<br/>samples = 12904<br/>value = [12467, 407, 19, 5, 6]>, fillcolor="#e68540"] ;
692 -> 696 ;
697 [label=<gini = 0.009<br/>samples = 7805<br/>value = [7770, 26, 5, 1, 3]>, fillcolor="#e5823a"] ;
696 -> 697 ;
698 [label=<gini = 0.146<br/>samples = 5099<br/>value = [4697, 381, 14, 4, 3]>, fillcolor="#e78c4a"] ;
696 -> 698 ;
699 [label=<PULocationID &le; 149.5<br/>gini = 0.486<br/>samples = 65985<br/>value = [41714, 22262, 1639, 256, 114]>, fillcolor="#f3c7a7"] ;
691 -> 699 ;
700 [label=<gini = 0.308<br/>samples = 7304<br/>value = [1, 5974, 1101, 178, 50]>, fillcolor="#97eb63"] ;
699 -> 700 ;
701 [label=<PULocationID &le; 229.5<br/>gini = 0.418<br/>samples = 58681<br/>value = [41713, 16288, 538, 78, 64]>, fillcolor="#efb388"] ;
699 -> 701 ;
702 [label=<PULocationID &le; 164.5<br/>gini = 0.304<br/>samples = 29133<br/>value = [23732, 5209, 131, 19, 42]>, fillcolor="#eb9d66"] ;
701 -> 702 ;
703 [label=<PULocationID &le; 162.5<br/>gini = 0.407<br/>samples = 18086<br/>value = [13051, 4862, 123, 16, 34]>, fillcolor="#efb184"] ;
702 -> 703 ;
704 [label=<gini = 0.344<br/>samples = 10088<br/>value = [7901, 2092, 66, 8, 21]>, fillcolor="#eca36f"] ;
703 -> 704 ;
705 [label=<gini = 0.465<br/>samples = 7998<br/>value = [5150, 2770, 57, 8, 13]>, fillcolor="#f3c6a5"] ;
703 -> 705 ;
706 [label=<gini = 0.064<br/>samples = 11047<br/>value = [10681, 347, 8, 3, 8]>, fillcolor="#e68540"] ;
702 -> 706 ;
707 [label=<PULocationID &le; 230.5<br/>gini = 0.489<br/>samples = 29548<br/>value = [17981, 11079, 407, 59, 22]>, fillcolor="#f5d0b5"] ;
701 -> 707 ;
708 [label=<gini = 0.225<br/>samples = 5301<br/>value = [449, 4641, 189, 18, 4]>, fillcolor="#8de954"] ;
707 -> 708 ;
709 [label=<PULocationID &le; 248.5<br/>gini = 0.407<br/>samples = 24247<br/>value = [17532, 6438, 218, 41, 18]>, fillcolor="#efb184"] ;
707 -> 709 ;
710 [label=<PULocationID &le; 234.5<br/>gini = 0.168<br/>samples = 13313<br/>value = [12086, 1190, 24, 7, 6]>, fillcolor="#e88e4d"] ;
709 -> 710 ;
711 [label=<gini = 0.266<br/>samples = 7775<br/>value = [6558, 1180, 24, 7, 6]>, fillcolor="#ea985e"] ;
710 -> 711 ;
712 [label=<gini = 0.004<br/>samples = 5538<br/>value = [5528, 10, 0, 0, 0]>, fillcolor="#e58139"] ;
710 -> 712 ;
713 [label=<PULocationID &le; 249.5<br/>gini = 0.521<br/>samples = 10934<br/>value = [5446, 5248, 194, 34, 12]>, fillcolor="#fefbf8"] ;
709 -> 713 ;
714 [label=<gini = 0.1<br/>samples = 5502<br/>value = [47, 5217, 192, 34, 12]>, fillcolor="#82e644"] ;
713 -> 714 ;
715 [label=<gini = 0.012<br/>samples = 5432<br/>value = [5399, 31, 2, 0, 0]>, fillcolor="#e5823a"] ;
713 -> 715 ;
716 [label=<PULocationID &le; 101.0<br/>gini = 0.102<br/>samples = 195500<br/>value = [185033, 10056, 264, 73, 74]>, fillcolor="#e68844"] ;
690 -> 716 ;
717 [label=<gini = 0.245<br/>samples = 17057<br/>value = [14625, 2416, 11, 2, 3]>, fillcolor="#e9965a"] ;
716 -> 717 ;
720 [label=<hour &le; 3.5<br/>gini = 0.086<br/>samples = 178443<br/>value = [170408, 7640, 253, 71, 71]>, fillcolor="#e68742"] ;
716 -> 720 ;
721 [label=<PULocationID &le; 147.5<br/>gini = 0.172<br/>samples = 56557<br/>value = [51209, 5060, 199, 52, 37]>, fillcolor="#e88e4e"] ;
720 -> 721 ;
722 [label=<gini = 0.016<br/>samples = 13168<br/>value = [13063, 93, 5, 4, 3]>, fillcolor="#e5823b"] ;
721 -> 722 ;
725 [label=<PULocationID &le; 151.5<br/>gini = 0.214<br/>samples = 43389<br/>value = [38146, 4967, 194, 48, 34]>, fillcolor="#e99254"] ;
721 -> 725 ;
726 [label=<gini = 0.527<br/>samples = 5041<br/>value = [2267, 2619, 120, 20, 15]>, fillcolor="#eefce6"] ;
725 -> 726 ;
727 [label=<PULocationID &le; 229.5<br/>gini = 0.121<br/>samples = 38348<br/>value = [35879, 2348, 74, 28, 19]>, fillcolor="#e78a47"] ;
725 -> 727 ;
728 [label=<PULocationID &le; 164.5<br/>gini = 0.051<br/>samples = 17989<br/>value = [17523, 433, 16, 10, 7]>, fillcolor="#e6843e"] ;
727 -> 728 ;
729 [label=<PULocationID &le; 162.5<br/>gini = 0.076<br/>samples = 11141<br/>value = [10702, 408, 14, 10, 7]>, fillcolor="#e68641"] ;
728 -> 729 ;
730 [label=<gini = 0.026<br/>samples = 5704<br/>value = [5628, 64, 8, 2, 2]>, fillcolor="#e5833c"] ;
729 -> 730 ;
731 [label=<gini = 0.125<br/>samples = 5437<br/>value = [5074, 344, 6, 8, 5]>, fillcolor="#e78a47"] ;
729 -> 731 ;
732 [label=<gini = 0.008<br/>samples = 6848<br/>value = [6821, 25, 2, 0, 0]>, fillcolor="#e5813a"] ;
728 -> 732 ;
733 [label=<PULocationID &le; 231.5<br/>gini = 0.178<br/>samples = 20359<br/>value = [18356, 1915, 58, 18, 12]>, fillcolor="#e88f4f"] ;
727 -> 733 ;
734 [label=<gini = 0.305<br/>samples = 5957<br/>value = [4852, 1062, 29, 7, 7]>, fillcolor="#eb9d66"] ;
733 -> 734 ;
735 [label=<PULocationID &le; 248.5<br/>gini = 0.117<br/>samples = 14402<br/>value = [13504, 853, 29, 11, 5]>, fillcolor="#e78946"] ;
733 -> 735 ;
736 [label=<gini = 0.015<br/>samples = 6936<br/>value = [6882, 48, 3, 2, 1]>, fillcolor="#e5823b"] ;
735 -> 736 ;
737 [label=<gini = 0.202<br/>samples = 7466<br/>value = [6622, 805, 26, 9, 4]>, fillcolor="#e89152"] ;
735 -> 737 ;
738 [label=<PULocationID &le; 185.5<br/>gini = 0.043<br/>samples = 121886<br/>value = [119199, 2580, 54, 19, 34]>, fillcolor="#e6843d"] ;
720 -> 738 ;
739 [label=<PULocationID &le; 147.5<br/>gini = 0.016<br/>samples = 61473<br/>value = [60965, 463, 20, 8, 17]>, fillcolor="#e5823b"] ;
738 -> 739 ;
740 [label=<gini = 0.006<br/>samples = 30631<br/>value = [30537, 81, 7, 1, 5]>, fillcolor="#e5813a"] ;
739 -> 740 ;
747 [label=<PULocationID &le; 151.5<br/>gini = 0.027<br/>samples = 30842<br/>value = [30428, 382, 13, 7, 12]>, fillcolor="#e5833c"] ;
739 -> 747 ;
748 [label=<gini = 0.072<br/>samples = 5606<br/>value = [5396, 199, 6, 2, 3]>, fillcolor="#e68641"] ;
747 -> 748 ;
749 [label=<PULocationID &le; 163.5<br/>gini = 0.016<br/>samples = 25236<br/>value = [25032, 183, 7, 5, 9]>, fillcolor="#e5823b"] ;
747 -> 749 ;
750 [label=<gini = 0.009<br/>samples = 14129<br/>value = [14063, 58, 1, 2, 5]>, fillcolor="#e5823a"] ;
749 -> 750 ;
753 [label=<gini = 0.025<br/>samples = 11107<br/>value = [10969, 125, 6, 3, 4]>, fillcolor="#e5833b"] ;
749 -> 753 ;
756 [label=<PULocationID &le; 230.5<br/>gini = 0.07<br/>samples = 60413<br/>value = [58234, 2117, 34, 11, 17]>, fillcolor="#e68640"] ;
738 -> 756 ;
757 [label=<PULocationID &le; 229.5<br/>gini = 0.179<br/>samples = 20417<br/>value = [18394, 1977, 30, 9, 7]>, fillcolor="#e88f4f"] ;
756 -> 757 ;
758 [label=<gini = 0.132<br/>samples = 13593<br/>value = [12625, 956, 7, 3, 2]>, fillcolor="#e78b48"] ;
757 -> 758 ;
761 [label=<gini = 0.263<br/>samples = 6824<br/>value = [5769, 1021, 23, 6, 5]>, fillcolor="#ea985d"] ;
757 -> 761 ;
762 [label=<gini = 0.008<br/>samples = 39996<br/>value = [39840, 140, 4, 2, 10]>, fillcolor="#e5813a"] ;
756 -> 762 ;
773 [label=<hour &le; 3.5<br/>gini = 0.785<br/>samples = 3228980<br/>value = [909807, 764861, 537145, 412720, 604447]>, fillcolor="#fdf8f3"] ;
1 -> 773 ;
774 [label=<PULocationID &le; 79.5<br/>gini = 0.794<br/>samples = 2786629<br/>value = [608742, 678833, 501526, 397269, 600259]>, fillcolor="#fbfef9"] ;
773 -> 774 ;
775 [label=<PULocationID &le; 78.5<br/>gini = 0.698<br/>samples = 655285<br/>value = [140940, 35716, 91148, 81774, 305707]>, fillcolor="#f7c0eb"] ;
774 -> 775 ;
776 [label=<PULocationID &le; 47.5<br/>gini = 0.738<br/>samples = 371028<br/>value = [140940, 35715, 91148, 76755, 26470]>, fillcolor="#fae9dc"] ;
775 -> 776 ;
777 [label=<PULocationID &le; 4.5<br/>gini = 0.136<br/>samples = 100425<br/>value = [93071, 7090, 198, 42, 24]>, fillcolor="#e78b49"] ;
776 -> 777 ;
778 [label=<hour &le; 1.5<br/>gini = 0.401<br/>samples = 26264<br/>value = [19121, 6912, 184, 33, 14]>, fillcolor="#efb082"] ;
777 -> 778 ;
779 [label=<dow &le; 5.5<br/>gini = 0.464<br/>samples = 14372<br/>value = [9317, 4897, 131, 19, 8]>, fillcolor="#f3c4a3"] ;
778 -> 779 ;
780 [label=<gini = 0.355<br/>samples = 6416<br/>value = [4948, 1434, 26, 6, 2]>, fillcolor="#eda673"] ;
779 -> 780 ;
781 [label=<gini = 0.509<br/>samples = 7956<br/>value = [4369, 3463, 105, 13, 6]>, fillcolor="#fae6d7"] ;
779 -> 781 ;
782 [label=<dow &le; 5.5<br/>gini = 0.292<br/>samples = 11892<br/>value = [9804, 2015, 53, 14, 6]>, fillcolor="#ea9c63"] ;
778 -> 782 ;
783 [label=<gini = 0.206<br/>samples = 5350<br/>value = [4732, 587, 25, 5, 1]>, fillcolor="#e89153"] ;
782 -> 783 ;
784 [label=<gini = 0.351<br/>samples = 6542<br/>value = [5072, 1428, 28, 9, 5]>, fillcolor="#eca572"] ;
782 -> 784 ;
785 [label=<PULocationID &le; 40.5<br/>gini = 0.006<br/>samples = 74161<br/>value = [73950, 178, 14, 9, 10]>, fillcolor="#e5813a"] ;
777 -> 785 ;
786 [label=<gini = 0.003<br/>samples = 42895<br/>value = [42822, 56, 8, 2, 7]>, fillcolor="#e58139"] ;
785 -> 786 ;
797 [label=<gini = 0.009<br/>samples = 31266<br/>value = [31128, 122, 6, 7, 3]>, fillcolor="#e5823a"] ;
785 -> 797 ;
806 [label=<PULocationID &le; 68.5<br/>gini = 0.755<br/>samples = 270603<br/>value = [47869, 28625, 90950, 76713, 26446]>, fillcolor="#f0fdfb"] ;
776 -> 806 ;
807 [label=<hour &le; 1.5<br/>gini = 0.74<br/>samples = 252059<br/>value = [29385, 28581, 90946, 76710, 26437]>, fillcolor="#effdfa"] ;
806 -> 807 ;
808 [label=<PULocationID &le; 48.5<br/>gini = 0.724<br/>samples = 145911<br/>value = [14835, 11548, 34884, 61404, 23240]>, fillcolor="#d0d0f9"] ;
807 -> 808 ;
809 [label=<gini = 0.542<br/>samples = 70703<br/>value = [1, 3, 8131, 42775, 19793]>, fillcolor="#a7a6f3"] ;
808 -> 809 ;
816 [label=<PULocationID &le; 67.5<br/>gini = 0.748<br/>samples = 75208<br/>value = [14834, 11545, 26753, 18629, 3447]>, fillcolor="#e3fbf7"] ;
808 -> 816 ;
817 [label=<PULocationID &le; 50.5<br/>gini = 0.498<br/>samples = 24959<br/>value = [14834, 9631, 399, 63, 32]>, fillcolor="#f6d4bc"] ;
816 -> 817 ;
818 [label=<dow &le; 5.5<br/>gini = 0.524<br/>samples = 19200<br/>value = [9081, 9626, 399, 62, 32]>, fillcolor="#f8fef4"] ;
817 -> 818 ;
819 [label=<gini = 0.393<br/>samples = 8340<br/>value = [6149, 2093, 77, 12, 9]>, fillcolor="#eead7e"] ;
818 -> 819 ;
820 [label=<hour &le; 0.5<br/>gini = 0.445<br/>samples = 10860<br/>value = [2932, 7533, 322, 50, 23]>, fillcolor="#b2f08c"] ;
818 -> 820 ;
821 [label=<gini = 0.346<br/>samples = 5620<br/>value = [951, 4439, 182, 32, 16]>, fillcolor="#9cec6b"] ;
820 -> 821 ;
822 [label=<gini = 0.508<br/>samples = 5240<br/>value = [1981, 3094, 140, 18, 7]>, fillcolor="#d2f6bb"] ;
820 -> 822 ;
823 [label=<gini = 0.002<br/>samples = 5759<br/>value = [5753, 5, 0, 1, 0]>, fillcolor="#e58139"] ;
817 -> 823 ;
824 [label=<gini = 0.582<br/>samples = 50249<br/>value = [0, 1914, 26354, 18566, 3415]>, fillcolor="#cef9f1"] ;
816 -> 824 ;
831 [label=<PULocationID &le; 67.5<br/>gini = 0.655<br/>samples = 106148<br/>value = [14550, 17033, 56062, 15306, 3197]>, fillcolor="#a8f4e6"] ;
807 -> 831 ;
832 [label=<PULocationID &le; 48.5<br/>gini = 0.698<br/>samples = 61918<br/>value = [14550, 9860, 28015, 7777, 1716]>, fillcolor="#c7f8ef"] ;
831 -> 832 ;
833 [label=<gini = 0.553<br/>samples = 44858<br/>value = [0, 7477, 27924, 7757, 1700]>, fillcolor="#93f1df"] ;
832 -> 833 ;
840 [label=<dow &le; 5.5<br/>gini = 0.253<br/>samples = 17060<br/>value = [14550, 2383, 91, 20, 16]>, fillcolor="#e9975b"] ;
832 -> 840 ;
841 [label=<gini = 0.111<br/>samples = 7308<br/>value = [6877, 407, 17, 5, 2]>, fillcolor="#e78945"] ;
840 -> 841 ;
842 [label=<gini = 0.34<br/>samples = 9752<br/>value = [7673, 1976, 74, 15, 14]>, fillcolor="#eca36e"] ;
840 -> 842 ;
843 [label=<gini = 0.541<br/>samples = 44230<br/>value = [0, 7173, 28047, 7529, 1481]>, fillcolor="#90f0df"] ;
831 -> 843 ;
850 [label=<gini = 0.006<br/>samples = 18544<br/>value = [18484, 44, 4, 3, 9]>, fillcolor="#e5813a"] ;
806 -> 850 ;
855 [label=<gini = 0.035<br/>samples = 284257<br/>value = [0, 1, 0, 5019, 279237]>, fillcolor="#e53dc1"] ;
775 -> 855 ;
868 [label=<PULocationID &le; 89.5<br/>gini = 0.783<br/>samples = 2131344<br/>value = [467802, 643117, 410378, 315495, 294552]>, fillcolor="#f1fcea"] ;
774 -> 868 ;
869 [label=<hour &le; 0.5<br/>gini = 0.029<br/>samples = 34691<br/>value = [34189, 467, 18, 9, 8]>, fillcolor="#e5833c"] ;
868 -> 869 ;
870 [label=<dow &le; 5.5<br/>gini = 0.06<br/>samples = 11984<br/>value = [11613, 347, 12, 7, 5]>, fillcolor="#e6853f"] ;
869 -> 870 ;
871 [label=<gini = 0.076<br/>samples = 6268<br/>value = [6022, 228, 10, 5, 3]>, fillcolor="#e68641"] ;
870 -> 871 ;
872 [label=<gini = 0.043<br/>samples = 5716<br/>value = [5591, 119, 2, 2, 2]>, fillcolor="#e6843d"] ;
870 -> 872 ;
873 [label=<gini = 0.011<br/>samples = 22707<br/>value = [22576, 120, 6, 2, 3]>, fillcolor="#e5823a"] ;
869 -> 873 ;
878 [label=<PULocationID &le; 148.5<br/>gini = 0.783<br/>samples = 2096653<br/>value = [433613, 642650, 410360, 315486, 294544]>, fillcolor="#eefce6"] ;
868 -> 878 ;
879 [label=<PULocationID &le; 147.5<br/>gini = 0.792<br/>samples = 851039<br/>value = [149483, 206943, 142518, 136037, 216058]>, fillcolor="#fffcfe"] ;
878 -> 879 ;
880 [label=<PULocationID &le; 115.0<br/>gini = 0.759<br/>samples = 637480<br/>value = [149483, 206943, 142504, 107099, 31451]>, fillcolor="#effce8"] ;
879 -> 880 ;
881 [label=<PULocationID &le; 113.5<br/>gini = 0.759<br/>samples = 356792<br/>value = [35924, 107755, 88146, 95576, 29391]>, fillcolor="#f9fef6"] ;
880 -> 881 ;
882 [label=<hour &le; 1.5<br/>gini = 0.703<br/>samples = 236149<br/>value = [35923, 102831, 61523, 30110, 5762]>, fillcolor="#e0f9d0"] ;
881 -> 882 ;
883 [label=<PULocationID &le; 100.5<br/>gini = 0.702<br/>samples = 150895<br/>value = [9124, 57211, 51057, 28110, 5393]>, fillcolor="#f7fdf3"] ;
882 -> 883 ;
884 [label=<PULocationID &le; 99.0<br/>gini = 0.586<br/>samples = 64681<br/>value = [4542, 36098, 19838, 3620, 583]>, fillcolor="#cff6b7"] ;
883 -> 884 ;
885 [label=<hour &le; 0.5<br/>gini = 0.664<br/>samples = 39807<br/>value = [4489, 15126, 16517, 3204, 471]>, fillcolor="#f4fefc"] ;
884 -> 885 ;
886 [label=<dow &le; 5.5<br/>gini = 0.653<br/>samples = 21801<br/>value = [2538, 5461, 11083, 2403, 316]>, fillcolor="#bbf6eb"] ;
885 -> 886 ;
887 [label=<gini = 0.657<br/>samples = 10514<br/>value = [1313, 3363, 4922, 796, 120]>, fillcolor="#d4f9f2"] ;
886 -> 887 ;
888 [label=<gini = 0.635<br/>samples = 11287<br/>value = [1225, 2098, 6161, 1607, 196]>, fillcolor="#a7f4e5"] ;
886 -> 888 ;
889 [label=<dow &le; 5.5<br/>gini = 0.607<br/>samples = 18006<br/>value = [1951, 9665, 5434, 801, 155]>, fillcolor="#d3f6bc"] ;
885 -> 889 ;
890 [label=<gini = 0.451<br/>samples = 7984<br/>value = [919, 5719, 1186, 127, 33]>, fillcolor="#a7ee7b"] ;
889 -> 890 ;
891 [label=<gini = 0.65<br/>samples = 10022<br/>value = [1032, 3946, 4248, 674, 122]>, fillcolor="#f5fefc"] ;
889 -> 891 ;
892 [label=<hour &le; 0.5<br/>gini = 0.271<br/>samples = 24874<br/>value = [53, 20972, 3321, 416, 112]>, fillcolor="#93ea5d"] ;
884 -> 892 ;
893 [label=<gini = 0.351<br/>samples = 13564<br/>value = [0, 10621, 2564, 311, 68]>, fillcolor="#9eec6e"] ;
892 -> 893 ;
896 [label=<dow &le; 5.5<br/>gini = 0.158<br/>samples = 11310<br/>value = [53, 10351, 757, 105, 44]>, fillcolor="#87e74b"] ;
892 -> 896 ;
897 [label=<gini = 0.151<br/>samples = 5667<br/>value = [8, 5206, 380, 49, 24]>, fillcolor="#87e74a"] ;
896 -> 897 ;
898 [label=<gini = 0.164<br/>samples = 5643<br/>value = [45, 5145, 377, 56, 20]>, fillcolor="#87e74c"] ;
896 -> 898 ;
899 [label=<PULocationID &le; 112.5<br/>gini = 0.722<br/>samples = 86214<br/>value = [4582, 21113, 31219, 24490, 4810]>, fillcolor="#e9fcf9"] ;
883 -> 899 ;
900 [label=<hour &le; 0.5<br/>gini = 0.662<br/>samples = 56491<br/>value = [4574, 1857, 22174, 23248, 4638]>, fillcolor="#f9f9fe"] ;
899 -> 900 ;
901 [label=<dow &le; 5.5<br/>gini = 0.635<br/>samples = 30354<br/>value = [2324, 7, 9599, 15104, 3320]>, fillcolor="#cbcaf8"] ;
900 -> 901 ;
902 [label=<gini = 0.629<br/>samples = 14576<br/>value = [1212, 4, 5441, 6827, 1092]>, fillcolor="#e1e1fb"] ;
901 -> 902 ;
903 [label=<gini = 0.63<br/>samples = 15778<br/>value = [1112, 3, 4158, 8277, 2228]>, fillcolor="#bab9f6"] ;
901 -> 903 ;
904 [label=<dow &le; 5.5<br/>gini = 0.656<br/>samples = 26137<br/>value = [2250, 1850, 12575, 8144, 1318]>, fillcolor="#cef9f1"] ;
900 -> 904 ;
905 [label=<gini = 0.636<br/>samples = 11727<br/>value = [1005, 1820, 6368, 2246, 288]>, fillcolor="#a9f4e6"] ;
904 -> 905 ;
906 [label=<gini = 0.634<br/>samples = 14410<br/>value = [1245, 30, 6207, 5898, 1030]>, fillcolor="#f8fefd"] ;
904 -> 906 ;
907 [label=<hour &le; 0.5<br/>gini = 0.486<br/>samples = 29723<br/>value = [8, 19256, 9045, 1242, 172]>, fillcolor="#bef29d"] ;
899 -> 907 ;
908 [label=<gini = 0.563<br/>samples = 16827<br/>value = [0, 8326, 7306, 1062, 133]>, fillcolor="#f1fcea"] ;
907 -> 908 ;
911 [label=<dow &le; 5.5<br/>gini = 0.263<br/>samples = 12896<br/>value = [8, 10930, 1739, 180, 39]>, fillcolor="#92ea5c"] ;
907 -> 911 ;
912 [label=<gini = 0.182<br/>samples = 6042<br/>value = [3, 5441, 506, 73, 19]>, fillcolor="#89e84e"] ;
911 -> 912 ;
913 [label=<gini = 0.326<br/>samples = 6854<br/>value = [5, 5489, 1233, 107, 20]>, fillcolor="#9beb69"] ;
911 -> 913 ;
914 [label=<PULocationID &le; 107.5<br/>gini = 0.599<br/>samples = 85254<br/>value = [26799, 45620, 10466, 2000, 369]>, fillcolor="#d4f7bf"] ;
882 -> 914 ;
915 [label=<PULocationID &le; 106.5<br/>gini = 0.569<br/>samples = 69215<br/>value = [14874, 41621, 10380, 1986, 354]>, fillcolor="#bef29e"] ;
914 -> 915 ;
916 [label=<PULocationID &le; 90.5<br/>gini = 0.52<br/>samples = 39279<br/>value = [14419, 23041, 1540, 192, 87]>, fillcolor="#d1f6ba"] ;
915 -> 916 ;
917 [label=<hour &le; 2.5<br/>gini = 0.315<br/>samples = 21862<br/>value = [2303, 17893, 1433, 166, 67]>, fillcolor="#96ea61"] ;
916 -> 917 ;
918 [label=<dow &le; 5.5<br/>gini = 0.19<br/>samples = 12195<br/>value = [10, 10916, 1106, 122, 41]>, fillcolor="#8ae850"] ;
917 -> 918 ;
919 [label=<gini = 0.134<br/>samples = 5645<br/>value = [9, 5241, 346, 34, 15]>, fillcolor="#85e748"] ;
918 -> 919 ;
920 [label=<gini = 0.236<br/>samples = 6550<br/>value = [1, 5675, 760, 88, 26]>, fillcolor="#8fe957"] ;
918 -> 920 ;
921 [label=<gini = 0.422<br/>samples = 9667<br/>value = [2293, 6977, 327, 44, 26]>, fillcolor="#abee81"] ;
917 -> 921 ;
922 [label=<hour &le; 2.5<br/>gini = 0.429<br/>samples = 17417<br/>value = [12116, 5148, 107, 26, 20]>, fillcolor="#f0b78f"] ;
916 -> 922 ;
923 [label=<gini = 0.481<br/>samples = 9678<br/>value = [5976, 3590, 82, 17, 13]>, fillcolor="#f5ceb1"] ;
922 -> 923 ;
924 [label=<gini = 0.33<br/>samples = 7739<br/>value = [6140, 1558, 25, 9, 7]>, fillcolor="#eca26c"] ;
922 -> 924 ;
925 [label=<hour &le; 2.5<br/>gini = 0.524<br/>samples = 29936<br/>value = [455, 18580, 8840, 1794, 267]>, fillcolor="#c2f3a4"] ;
915 -> 925 ;
926 [label=<gini = 0.586<br/>samples = 17675<br/>value = [0, 8462, 7432, 1563, 218]>, fillcolor="#f2fceb"] ;
925 -> 926 ;
929 [label=<dow &le; 5.5<br/>gini = 0.304<br/>samples = 12261<br/>value = [455, 10118, 1408, 231, 49]>, fillcolor="#95ea60"] ;
925 -> 929 ;
930 [label=<gini = 0.248<br/>samples = 5259<br/>value = [455, 4532, 231, 28, 13]>, fillcolor="#8fe957"] ;
929 -> 930 ;
931 [label=<gini = 0.334<br/>samples = 7002<br/>value = [0, 5586, 1177, 203, 36]>, fillcolor="#9beb69"] ;
929 -> 931 ;
932 [label=<hour &le; 2.5<br/>gini = 0.385<br/>samples = 16039<br/>value = [11925, 3999, 86, 14, 15]>, fillcolor="#eeac7d"] ;
914 -> 932 ;
933 [label=<gini = 0.484<br/>samples = 9763<br/>value = [5937, 3729, 74, 9, 14]>, fillcolor="#f5d1b7"] ;
932 -> 933 ;
934 [label=<gini = 0.088<br/>samples = 6276<br/>value = [5988, 270, 12, 5, 1]>, fillcolor="#e68742"] ;
932 -> 934 ;
935 [label=<gini = 0.617<br/>samples = 120643<br/>value = [1, 4924, 26623, 65466, 23629]>, fillcolor="#aeadf4"] ;
881 -> 935 ;
950 [label=<PULocationID &le; 140.5<br/>gini = 0.672<br/>samples = 280688<br/>value = [113559, 99188, 54358, 11523, 2060]>, fillcolor="#fdf5ef"] ;
880 -> 950 ;
951 [label=<PULocationID &le; 136.5<br/>gini = 0.441<br/>samples = 111278<br/>value = [77051, 31307, 2558, 252, 110]>, fillcolor="#f0b78e"] ;
950 -> 951 ;
952 [label=<PULocationID &le; 125.5<br/>gini = 0.256<br/>samples = 50669<br/>value = [43062, 7422, 110, 46, 29]>, fillcolor="#ea975c"] ;
951 -> 952 ;
953 [label=<dow &le; 5.5<br/>gini = 0.363<br/>samples = 31688<br/>value = [24208, 7322, 103, 36, 19]>, fillcolor="#eda876"] ;
952 -> 953 ;
954 [label=<hour &le; 1.5<br/>gini = 0.254<br/>samples = 14480<br/>value = [12330, 2106, 27, 8, 9]>, fillcolor="#ea975b"] ;
953 -> 954 ;
955 [label=<gini = 0.299<br/>samples = 7788<br/>value = [6372, 1387, 20, 4, 5]>, fillcolor="#eb9d65"] ;
954 -> 955 ;
956 [label=<gini = 0.196<br/>samples = 6692<br/>value = [5958, 719, 7, 4, 4]>, fillcolor="#e89051"] ;
954 -> 956 ;
957 [label=<hour &le; 1.5<br/>gini = 0.432<br/>samples = 17208<br/>value = [11878, 5216, 76, 28, 10]>, fillcolor="#f1b991"] ;
953 -> 957 ;
958 [label=<gini = 0.476<br/>samples = 9254<br/>value = [5751, 3439, 45, 17, 2]>, fillcolor="#f5cdb0"] ;
957 -> 958 ;
959 [label=<gini = 0.357<br/>samples = 7954<br/>value = [6127, 1777, 31, 11, 8]>, fillcolor="#eda674"] ;
957 -> 959 ;
960 [label=<hour &le; 0.5<br/>gini = 0.013<br/>samples = 18981<br/>value = [18854, 100, 7, 10, 10]>, fillcolor="#e5823a"] ;
952 -> 960 ;
961 [label=<gini = 0.027<br/>samples = 8244<br/>value = [8133, 91, 3, 8, 9]>, fillcolor="#e5833c"] ;
960 -> 961 ;
962 [label=<gini = 0.003<br/>samples = 10737<br/>value = [10721, 9, 4, 2, 1]>, fillcolor="#e58139"] ;
960 -> 962 ;
965 [label=<PULocationID &le; 137.5<br/>gini = 0.529<br/>samples = 60609<br/>value = [33989, 23885, 2448, 206, 81]>, fillcolor="#f8dcc9"] ;
951 -> 965 ;
966 [label=<hour &le; 1.5<br/>gini = 0.519<br/>samples = 36534<br/>value = [11271, 22571, 2424, 197, 71]>, fillcolor="#c4f3a6"] ;
965 -> 966 ;
967 [label=<hour &le; 0.5<br/>gini = 0.298<br/>samples = 23619<br/>value = [1438, 19593, 2352, 180, 56]>, fillcolor="#94ea5e"] ;
966 -> 967 ;
968 [label=<gini = 0.279<br/>samples = 13472<br/>value = [1, 11258, 2030, 144, 39]>, fillcolor="#95ea5f"] ;
967 -> 968 ;
971 [label=<gini = 0.304<br/>samples = 10147<br/>value = [1437, 8335, 322, 36, 17]>, fillcolor="#96ea62"] ;
967 -> 971 ;
972 [label=<hour &le; 2.5<br/>gini = 0.367<br/>samples = 12915<br/>value = [9833, 2978, 72, 17, 15]>, fillcolor="#eda876"] ;
966 -> 972 ;
973 [label=<gini = 0.459<br/>samples = 7395<br/>value = [4851, 2463, 61, 10, 10]>, fillcolor="#f2c29f"] ;
972 -> 973 ;
974 [label=<gini = 0.177<br/>samples = 5520<br/>value = [4982, 515, 11, 7, 5]>, fillcolor="#e88f4e"] ;
972 -> 974 ;
975 [label=<hour &le; 0.5<br/>gini = 0.107<br/>samples = 24075<br/>value = [22718, 1314, 24, 9, 10]>, fillcolor="#e78945"] ;
965 -> 975 ;
976 [label=<PULocationID &le; 139.5<br/>gini = 0.176<br/>samples = 12939<br/>value = [11680, 1223, 19, 7, 10]>, fillcolor="#e88f4e"] ;
975 -> 976 ;
977 [label=<gini = 0.121<br/>samples = 6875<br/>value = [6431, 423, 10, 4, 7]>, fillcolor="#e78a47"] ;
976 -> 977 ;
978 [label=<gini = 0.233<br/>samples = 6064<br/>value = [5249, 800, 9, 3, 3]>, fillcolor="#e99558"] ;
976 -> 978 ;
979 [label=<gini = 0.017<br/>samples = 11136<br/>value = [11038, 91, 5, 2, 0]>, fillcolor="#e5823b"] ;
975 -> 979 ;
982 [label=<PULocationID &le; 144.5<br/>gini = 0.695<br/>samples = 169410<br/>value = [36508, 67881, 51800, 11271, 1950]>, fillcolor="#edfbe4"] ;
950 -> 982 ;
983 [label=<PULocationID &le; 143.5<br/>gini = 0.683<br/>samples = 161054<br/>value = [28156, 67878, 51799, 11271, 1950]>, fillcolor="#ecfbe2"] ;
982 -> 983 ;
984 [label=<hour &le; 1.5<br/>gini = 0.647<br/>samples = 87066<br/>value = [28152, 40183, 16119, 2374, 238]>, fillcolor="#e4fad7"] ;
983 -> 984 ;
985 [label=<PULocationID &le; 142.5<br/>gini = 0.592<br/>samples = 63091<br/>value = [8626, 35862, 16019, 2355, 229]>, fillcolor="#c7f4ac"] ;
984 -> 985 ;
986 [label=<hour &le; 0.5<br/>gini = 0.524<br/>samples = 57119<br/>value = [2693, 35826, 16018, 2353, 229]>, fillcolor="#bff2a0"] ;
985 -> 986 ;
987 [label=<gini = 0.56<br/>samples = 35036<br/>value = [0, 17711, 14871, 2251, 203]>, fillcolor="#ecfbe3"] ;
986 -> 987 ;
994 [label=<dow &le; 5.5<br/>gini = 0.309<br/>samples = 22083<br/>value = [2693, 18115, 1147, 102, 26]>, fillcolor="#96ea62"] ;
986 -> 994 ;
995 [label=<gini = 0.432<br/>samples = 9617<br/>value = [2666, 6735, 190, 17, 9]>, fillcolor="#b2f08b"] ;
994 -> 995 ;
996 [label=<PULocationID &le; 141.5<br/>gini = 0.161<br/>samples = 12466<br/>value = [27, 11380, 957, 85, 17]>, fillcolor="#87e74c"] ;
994 -> 996 ;
997 [label=<gini = 0.191<br/>samples = 6538<br/>value = [7, 5846, 625, 47, 13]>, fillcolor="#8ae850"] ;
996 -> 997 ;
998 [label=<gini = 0.125<br/>samples = 5928<br/>value = [20, 5534, 332, 38, 4]>, fillcolor="#84e747"] ;
996 -> 998 ;
999 [label=<gini = 0.013<br/>samples = 5972<br/>value = [5933, 36, 1, 2, 0]>, fillcolor="#e5823a"] ;
985 -> 999 ;
1000 [label=<PULocationID &le; 141.5<br/>gini = 0.304<br/>samples = 23975<br/>value = [19526, 4321, 100, 19, 9]>, fillcolor="#eb9e66"] ;
984 -> 1000 ;
1001 [label=<hour &le; 2.5<br/>gini = 0.415<br/>samples = 14521<br/>value = [10327, 4077, 94, 16, 7]>, fillcolor="#efb489"] ;
1000 -> 1001 ;
1002 [label=<gini = 0.49<br/>samples = 8216<br/>value = [4909, 3210, 81, 11, 5]>, fillcolor="#f6d4bc"] ;
1001 -> 1002 ;
1003 [label=<gini = 0.243<br/>samples = 6305<br/>value = [5418, 867, 13, 5, 2]>, fillcolor="#e99659"] ;
1001 -> 1003 ;
1004 [label=<gini = 0.053<br/>samples = 9454<br/>value = [9199, 244, 6, 3, 2]>, fillcolor="#e6843e"] ;
1000 -> 1004 ;
1005 [label=<gini = 0.612<br/>samples = 73988<br/>value = [4, 27695, 35680, 8897, 1712]>, fillcolor="#ddfbf5"] ;
983 -> 1005 ;
1020 [label=<gini = 0.001<br/>samples = 8356<br/>value = [8352, 3, 1, 0, 0]>, fillcolor="#e58139"] ;
982 -> 1020 ;
1021 [label=<gini = 0.234<br/>samples = 213559<br/>value = [0, 0, 14, 28938, 184607]>, fillcolor="#e958ca"] ;
879 -> 1021 ;
1036 [label=<hour &le; 1.5<br/>gini = 0.755<br/>samples = 1245614<br/>value = [284130, 435707, 267842, 179449, 78486]>, fillcolor="#eafbe0"] ;
878 -> 1036 ;
1037 [label=<PULocationID &le; 186.5<br/>gini = 0.77<br/>samples = 789266<br/>value = [123264, 255909, 186400, 151269, 72424]>, fillcolor="#f0fce8"] ;
1036 -> 1037 ;
1038 [label=<PULocationID &le; 157.5<br/>gini = 0.693<br/>samples = 284055<br/>value = [23720, 82311, 123049, 47406, 7569]>, fillcolor="#d7faf3"] ;
1037 -> 1038 ;
1039 [label=<gini = 0.011<br/>samples = 8161<br/>value = [8114, 45, 0, 0, 2]>, fillcolor="#e5823a"] ;
1038 -> 1039 ;
1040 [label=<PULocationID &le; 163.5<br/>gini = 0.679<br/>samples = 275894<br/>value = [15606, 82266, 123049, 47406, 7567]>, fillcolor="#d5faf3"] ;
1038 -> 1040 ;
1041 [label=<PULocationID &le; 158.5<br/>gini = 0.627<br/>samples = 132786<br/>value = [2637, 59095, 53314, 15044, 2696]>, fillcolor="#f5fdf1"] ;
1040 -> 1041 ;
1042 [label=<gini = 0.53<br/>samples = 45199<br/>value = [0, 3961, 28826, 10459, 1953]>, fillcolor="#96f1e0"] ;
1041 -> 1042 ;
1049 [label=<hour &le; 0.5<br/>gini = 0.522<br/>samples = 87587<br/>value = [2637, 55134, 24488, 4585, 743]>, fillcolor="#bff29f"] ;
1041 -> 1049 ;
1050 [label=<PULocationID &le; 161.5<br/>gini = 0.581<br/>samples = 52500<br/>value = [80, 25614, 21917, 4247, 642]>, fillcolor="#effce7"] ;
1049 -> 1050 ;
1051 [label=<dow &le; 5.5<br/>gini = 0.592<br/>samples = 19612<br/>value = [78, 5794, 10789, 2614, 337]>, fillcolor="#b7f6ea"] ;
1050 -> 1051 ;
1052 [label=<gini = 0.578<br/>samples = 9986<br/>value = [36, 2648, 5754, 1395, 153]>, fillcolor="#abf4e6"] ;
1051 -> 1052 ;
1053 [label=<gini = 0.603<br/>samples = 9626<br/>value = [42, 3146, 5035, 1219, 184]>, fillcolor="#c5f7ee"] ;
1051 -> 1053 ;
1054 [label=<gini = 0.52<br/>samples = 32888<br/>value = [2, 19820, 11128, 1633, 305]>, fillcolor="#caf5b0"] ;
1050 -> 1054 ;
1061 [label=<PULocationID &le; 162.5<br/>gini = 0.281<br/>samples = 35087<br/>value = [2557, 29520, 2571, 338, 101]>, fillcolor="#92e95b"] ;
1049 -> 1061 ;
1062 [label=<dow &le; 5.5<br/>gini = 0.304<br/>samples = 21565<br/>value = [2557, 17781, 1033, 139, 55]>, fillcolor="#95ea60"] ;
1061 -> 1062 ;
1063 [label=<PULocationID &le; 161.5<br/>gini = 0.352<br/>samples = 10084<br/>value = [1878, 7894, 259, 34, 19]>, fillcolor="#9eec6e"] ;
1062 -> 1063 ;
1064 [label=<gini = 0.369<br/>samples = 5068<br/>value = [1019, 3894, 134, 14, 7]>, fillcolor="#a1ed72"] ;
1063 -> 1064 ;
1065 [label=<gini = 0.334<br/>samples = 5016<br/>value = [859, 4000, 125, 20, 12]>, fillcolor="#9beb69"] ;
1063 -> 1065 ;
1066 [label=<PULocationID &le; 161.5<br/>gini = 0.25<br/>samples = 11481<br/>value = [679, 9887, 774, 105, 36]>, fillcolor="#8fe956"] ;
1062 -> 1066 ;
1067 [label=<gini = 0.227<br/>samples = 6388<br/>value = [69, 5579, 628, 81, 31]>, fillcolor="#8ee955"] ;
1066 -> 1067 ;
1068 [label=<gini = 0.269<br/>samples = 5093<br/>value = [610, 4308, 146, 24, 5]>, fillcolor="#92ea5c"] ;
1066 -> 1068 ;
1069 [label=<gini = 0.233<br/>samples = 13522<br/>value = [0, 11739, 1538, 199, 46]>, fillcolor="#8fe956"] ;
1061 -> 1069 ;
1072 [label=<PULocationID &le; 164.5<br/>gini = 0.676<br/>samples = 143108<br/>value = [12969, 23171, 69735, 32362, 4871]>, fillcolor="#bcf6eb"] ;
1040 -> 1072 ;
1073 [label=<gini = 0.553<br/>samples = 51324<br/>value = [0, 213, 27336, 20459, 3316]>, fillcolor="#d3f9f2"] ;
1072 -> 1073 ;
1080 [label=<PULocationID &le; 169.5<br/>gini = 0.687<br/>samples = 91784<br/>value = [12969, 22958, 42399, 11903, 1555]>, fillcolor="#c7f8ef"] ;
1072 -> 1080 ;
1081 [label=<gini = 0.005<br/>samples = 5894<br/>value = [5878, 12, 0, 2, 2]>, fillcolor="#e5813a"] ;
1080 -> 1081 ;
1082 [label=<hour &le; 0.5<br/>gini = 0.659<br/>samples = 85890<br/>value = [7091, 22946, 42399, 11901, 1553]>, fillcolor="#c2f7ed"] ;
1080 -> 1082 ;
1083 [label=<PULocationID &le; 170.5<br/>gini = 0.578<br/>samples = 48207<br/>value = [3981, 4245, 29192, 9615, 1174]>, fillcolor="#9bf2e2"] ;
1082 -> 1083 ;
1084 [label=<gini = 0.474<br/>samples = 22987<br/>value = [0, 665, 15510, 6034, 778]>, fillcolor="#90f0df"] ;
1083 -> 1084 ;
1087 [label=<dow &le; 5.5<br/>gini = 0.64<br/>samples = 25220<br/>value = [3981, 3580, 13682, 3581, 396]>, fillcolor="#a5f3e5"] ;
1083 -> 1087 ;
1088 [label=<gini = 0.652<br/>samples = 12310<br/>value = [1940, 2323, 6439, 1421, 187]>, fillcolor="#adf4e7"] ;
1087 -> 1088 ;
1089 [label=<gini = 0.623<br/>samples = 12910<br/>value = [2041, 1257, 7243, 2160, 209]>, fillcolor="#a1f3e4"] ;
1087 -> 1089 ;
1090 [label=<dow &le; 5.5<br/>gini = 0.62<br/>samples = 37683<br/>value = [3110, 18701, 13207, 2286, 379]>, fillcolor="#e1f9d3"] ;
1082 -> 1090 ;
1091 [label=<PULocationID &le; 185.5<br/>gini = 0.512<br/>samples = 17052<br/>value = [1295, 11150, 3958, 534, 115]>, fillcolor="#b6f192"] ;
1090 -> 1091 ;
1092 [label=<gini = 0.596<br/>samples = 9532<br/>value = [1295, 5386, 2418, 360, 73]>, fillcolor="#c8f4ac"] ;
1091 -> 1092 ;
1093 [label=<gini = 0.37<br/>samples = 7520<br/>value = [0, 5764, 1540, 174, 42]>, fillcolor="#a2ed73"] ;
1091 -> 1093 ;
1094 [label=<PULocationID &le; 185.5<br/>gini = 0.65<br/>samples = 20631<br/>value = [1815, 7551, 9249, 1752, 264]>, fillcolor="#e5fcf7"] ;
1090 -> 1094 ;
1095 [label=<gini = 0.68<br/>samples = 11812<br/>value = [1815, 3041, 5521, 1231, 204]>, fillcolor="#c7f8ef"] ;
1094 -> 1095 ;
1096 [label=<gini = 0.556<br/>samples = 8819<br/>value = [0, 4510, 3728, 521, 60]>, fillcolor="#ebfbe1"] ;
1094 -> 1096 ;
1097 [label=<PULocationID &le; 262.5<br/>gini = 0.769<br/>samples = 505211<br/>value = [99544, 173598, 63351, 103863, 64855]>, fillcolor="#e8fadd"] ;
1037 -> 1097 ;
1098 [label=<PULocationID &le; 246.5<br/>gini = 0.781<br/>samples = 448639<br/>value = [99379, 129792, 52808, 102070, 64590]>, fillcolor="#f4fdef"] ;
1097 -> 1098 ;
1099 [label=<PULocationID &le; 235.5<br/>gini = 0.746<br/>samples = 335636<br/>value = [69266, 129080, 52742, 62376, 22172]>, fillcolor="#e1f9d3"] ;
1098 -> 1099 ;
1100 [label=<PULocationID &le; 229.5<br/>gini = 0.778<br/>samples = 235710<br/>value = [40920, 64926, 46229, 61620, 22015]>, fillcolor="#fcfffb"] ;
1099 -> 1100 ;
1101 [label=<PULocationID &le; 228.5<br/>gini = 0.524<br/>samples = 62426<br/>value = [21840, 36959, 3176, 349, 102]>, fillcolor="#cef5b5"] ;
1100 -> 1101 ;
1102 [label=<PULocationID &le; 211.5<br/>gini = 0.494<br/>samples = 36197<br/>value = [21804, 13701, 607, 55, 30]>, fillcolor="#f6d2b8"] ;
1101 -> 1102 ;
1103 [label=<PULocationID &le; 210.5<br/>gini = 0.523<br/>samples = 26176<br/>value = [11790, 13698, 604, 54, 30]>, fillcolor="#edfce5"] ;
1102 -> 1103 ;
1104 [label=<gini = 0.003<br/>samples = 7422<br/>value = [7411, 7, 3, 1, 0]>, fillcolor="#e58139"] ;
1103 -> 1104 ;
1105 [label=<hour &le; 0.5<br/>gini = 0.411<br/>samples = 18754<br/>value = [4379, 13691, 601, 53, 30]>, fillcolor="#a9ee7f"] ;
1103 -> 1105 ;
1106 [label=<gini = 0.263<br/>samples = 10033<br/>value = [994, 8547, 440, 35, 17]>, fillcolor="#91e95a"] ;
1105 -> 1106 ;
1107 [label=<gini = 0.501<br/>samples = 8721<br/>value = [3385, 5144, 161, 18, 13]>, fillcolor="#d3f6be"] ;
1105 -> 1107 ;
1108 [label=<gini = 0.001<br/>samples = 10021<br/>value = [10014, 3, 3, 1, 0]>, fillcolor="#e58139"] ;
1102 -> 1108 ;
1109 [label=<hour &le; 0.5<br/>gini = 0.204<br/>samples = 26229<br/>value = [36, 23258, 2569, 294, 72]>, fillcolor="#8ce852"] ;
1101 -> 1109 ;
1110 [label=<gini = 0.273<br/>samples = 14589<br/>value = [0, 12266, 2033, 234, 56]>, fillcolor="#93ea5e"] ;
1109 -> 1110 ;
1113 [label=<dow &le; 5.5<br/>gini = 0.106<br/>samples = 11640<br/>value = [36, 10992, 536, 60, 16]>, fillcolor="#83e745"] ;
1109 -> 1113 ;
1114 [label=<gini = 0.092<br/>samples = 5665<br/>value = [10, 5394, 233, 20, 8]>, fillcolor="#82e643"] ;
1113 -> 1114 ;
1115 [label=<gini = 0.12<br/>samples = 5975<br/>value = [26, 5598, 303, 40, 8]>, fillcolor="#84e746"] ;
1113 -> 1115 ;
1116 [label=<PULocationID &le; 233.5<br/>gini = 0.759<br/>samples = 173284<br/>value = [19080, 27967, 43053, 61271, 21913]>, fillcolor="#e4e3fb"] ;
1100 -> 1116 ;
1117 [label=<PULocationID &le; 231.5<br/>gini = 0.782<br/>samples = 113301<br/>value = [19031, 27939, 27122, 28422, 10787]>, fillcolor="#fefeff"] ;
1116 -> 1117 ;
1118 [label=<gini = 0.726<br/>samples = 90087<br/>value = [2, 23923, 27008, 28391, 10763]>, fillcolor="#fbfbfe"] ;
1117 -> 1118 ;
1133 [label=<PULocationID &le; 232.5<br/>gini = 0.298<br/>samples = 23214<br/>value = [19029, 4016, 114, 31, 24]>, fillcolor="#eb9c64"] ;
1117 -> 1133 ;
1134 [label=<gini = 0.146<br/>samples = 9869<br/>value = [9092, 706, 41, 17, 13]>, fillcolor="#e78c4a"] ;
1133 -> 1134 ;
1135 [label=<hour &le; 0.5<br/>gini = 0.384<br/>samples = 13345<br/>value = [9937, 3310, 73, 14, 11]>, fillcolor="#eeac7c"] ;
1133 -> 1135 ;
1136 [label=<gini = 0.48<br/>samples = 7765<br/>value = [4788, 2900, 64, 7, 6]>, fillcolor="#f5ceb2"] ;
1135 -> 1136 ;
1137 [label=<gini = 0.143<br/>samples = 5580<br/>value = [5149, 410, 9, 7, 5]>, fillcolor="#e78c4a"] ;
1135 -> 1137 ;
1138 [label=<hour &le; 0.5<br/>gini = 0.595<br/>samples = 59983<br/>value = [49, 28, 15931, 32849, 11126]>, fillcolor="#b4b3f5"] ;
1116 -> 1138 ;
1139 [label=<gini = 0.506<br/>samples = 33707<br/>value = [20, 1, 2728, 21589, 9369]>, fillcolor="#9d9cf2"] ;
1138 -> 1139 ;
1142 [label=<dow &le; 5.5<br/>gini = 0.559<br/>samples = 26276<br/>value = [29, 27, 13203, 11260, 1757]>, fillcolor="#e5fcf7"] ;
1138 -> 1142 ;
1143 [label=<gini = 0.471<br/>samples = 12038<br/>value = [7, 21, 7940, 3658, 412]>, fillcolor="#9af2e1"] ;
1142 -> 1143 ;
1144 [label=<gini = 0.569<br/>samples = 14238<br/>value = [22, 6, 5263, 7602, 1345]>, fillcolor="#cccbf8"] ;
1142 -> 1144 ;
1145 [label=<PULocationID &le; 238.5<br/>gini = 0.503<br/>samples = 99926<br/>value = [28346, 64154, 6513, 756, 157]>, fillcolor="#bdf29c"] ;
1099 -> 1145 ;
1146 [label=<hour &le; 0.5<br/>gini = 0.557<br/>samples = 49574<br/>value = [21608, 24788, 2742, 360, 76]>, fillcolor="#f0fce8"] ;
1145 -> 1146 ;
1147 [label=<PULocationID &le; 237.5<br/>gini = 0.495<br/>samples = 31052<br/>value = [7332, 20642, 2669, 340, 69]>, fillcolor="#b5f090"] ;
1146 -> 1147 ;
1148 [label=<PULocationID &le; 236.5<br/>gini = 0.427<br/>samples = 22919<br/>value = [3061, 16868, 2596, 335, 59]>, fillcolor="#a3ed75"] ;
1147 -> 1148 ;
1149 [label=<gini = 0.477<br/>samples = 9026<br/>value = [3057, 5763, 185, 17, 4]>, fillcolor="#c3f3a5"] ;
1148 -> 1149 ;
1150 [label=<gini = 0.33<br/>samples = 13893<br/>value = [4, 11105, 2411, 318, 55]>, fillcolor="#9beb69"] ;
1148 -> 1150 ;
1153 [label=<gini = 0.509<br/>samples = 8133<br/>value = [4271, 3774, 73, 5, 10]>, fillcolor="#fcf1e8"] ;
1147 -> 1153 ;
1154 [label=<dow &le; 5.5<br/>gini = 0.356<br/>samples = 18522<br/>value = [14276, 4146, 73, 20, 7]>, fillcolor="#eda673"] ;
1146 -> 1154 ;
1155 [label=<gini = 0.185<br/>samples = 8004<br/>value = [7181, 802, 14, 5, 2]>, fillcolor="#e88f50"] ;
1154 -> 1155 ;
1156 [label=<gini = 0.444<br/>samples = 10518<br/>value = [7095, 3344, 59, 15, 5]>, fillcolor="#f1bd97"] ;
1154 -> 1156 ;
1157 [label=<dow &le; 5.5<br/>gini = 0.365<br/>samples = 50352<br/>value = [6738, 39366, 3771, 396, 81]>, fillcolor="#9cec6b"] ;
1145 -> 1157 ;
1158 [label=<PULocationID &le; 239.5<br/>gini = 0.41<br/>samples = 21777<br/>value = [5190, 15887, 628, 49, 23]>, fillcolor="#aaee7f"] ;
1157 -> 1158 ;
1159 [label=<gini = 0.34<br/>samples = 11129<br/>value = [1705, 8867, 508, 37, 12]>, fillcolor="#9beb69"] ;
1158 -> 1159 ;
1160 [label=<hour &le; 0.5<br/>gini = 0.458<br/>samples = 10648<br/>value = [3485, 7020, 120, 12, 11]>, fillcolor="#bef29d"] ;
1158 -> 1160 ;
1161 [label=<gini = 0.476<br/>samples = 5295<br/>value = [1899, 3329, 57, 5, 5]>, fillcolor="#c7f4ac"] ;
1160 -> 1161 ;
1162 [label=<gini = 0.437<br/>samples = 5353<br/>value = [1586, 3691, 63, 7, 6]>, fillcolor="#b5f090"] ;
1160 -> 1162 ;
1163 [label=<PULocationID &le; 245.5<br/>gini = 0.31<br/>samples = 28575<br/>value = [1548, 23479, 3143, 347, 58]>, fillcolor="#95ea61"] ;
1157 -> 1163 ;
1164 [label=<hour &le; 0.5<br/>gini = 0.399<br/>samples = 15474<br/>value = [1544, 11734, 1925, 255, 16]>, fillcolor="#9fec70"] ;
1163 -> 1164 ;
1165 [label=<gini = 0.46<br/>samples = 8721<br/>value = [755, 6164, 1574, 215, 13]>, fillcolor="#aaee80"] ;
1164 -> 1165 ;
1166 [label=<gini = 0.303<br/>samples = 6753<br/>value = [789, 5570, 351, 40, 3]>, fillcolor="#95ea60"] ;
1164 -> 1166 ;
1167 [label=<gini = 0.188<br/>samples = 13101<br/>value = [4, 11745, 1218, 92, 42]>, fillcolor="#8ae850"] ;
1163 -> 1167 ;
1170 [label=<PULocationID &le; 249.5<br/>gini = 0.665<br/>samples = 113003<br/>value = [30113, 712, 66, 39694, 42418]>, fillcolor="#fef8fd"] ;
1098 -> 1170 ;
1171 [label=<gini = 0.504<br/>samples = 82434<br/>value = [295, 0, 47, 39683, 42409]>, fillcolor="#fdf2fb"] ;
1170 -> 1171 ;
1178 [label=<PULocationID &le; 255.5<br/>gini = 0.048<br/>samples = 30569<br/>value = [29818, 712, 19, 11, 9]>, fillcolor="#e6843e"] ;
1170 -> 1178 ;
1179 [label=<gini = 0.102<br/>samples = 10196<br/>value = [9648, 526, 12, 6, 4]>, fillcolor="#e68844"] ;
1178 -> 1179 ;
1182 [label=<PULocationID &le; 256.5<br/>gini = 0.02<br/>samples = 20373<br/>value = [20170, 186, 7, 5, 5]>, fillcolor="#e5823b"] ;
1178 -> 1182 ;
1183 [label=<gini = 0.036<br/>samples = 8381<br/>value = [8227, 140, 7, 5, 2]>, fillcolor="#e5833d"] ;
1182 -> 1183 ;
1184 [label=<gini = 0.008<br/>samples = 11992<br/>value = [11943, 46, 0, 0, 3]>, fillcolor="#e5823a"] ;
1182 -> 1184 ;
1187 [label=<hour &le; 0.5<br/>gini = 0.365<br/>samples = 56572<br/>value = [165, 43806, 10543, 1793, 265]>, fillcolor="#a0ec70"] ;
1097 -> 1187 ;
1188 [label=<dow &le; 5.5<br/>gini = 0.429<br/>samples = 30647<br/>value = [45, 21981, 7143, 1320, 158]>, fillcolor="#acef82"] ;
1187 -> 1188 ;
1189 [label=<PULocationID &le; 263.5<br/>gini = 0.38<br/>samples = 14541<br/>value = [17, 11058, 2939, 459, 68]>, fillcolor="#a3ed74"] ;
1188 -> 1189 ;
1190 [label=<gini = 0.366<br/>samples = 7226<br/>value = [0, 5579, 1396, 232, 19]>, fillcolor="#a0ec71"] ;
1189 -> 1190 ;
1191 [label=<gini = 0.393<br/>samples = 7315<br/>value = [17, 5479, 1543, 227, 49]>, fillcolor="#a5ed78"] ;
1189 -> 1191 ;
1192 [label=<PULocationID &le; 263.5<br/>gini = 0.469<br/>samples = 16106<br/>value = [28, 10923, 4204, 861, 90]>, fillcolor="#b4f08f"] ;
1188 -> 1192 ;
1193 [label=<gini = 0.499<br/>samples = 8524<br/>value = [0, 5530, 2336, 621, 37]>, fillcolor="#bbf299"] ;
1192 -> 1193 ;
1194 [label=<gini = 0.432<br/>samples = 7582<br/>value = [28, 5393, 1868, 240, 53]>, fillcolor="#aeef85"] ;
1192 -> 1194 ;
1195 [label=<dow &le; 5.5<br/>gini = 0.274<br/>samples = 25925<br/>value = [120, 21825, 3400, 473, 107]>, fillcolor="#93ea5d"] ;
1187 -> 1195 ;
1196 [label=<PULocationID &le; 263.5<br/>gini = 0.188<br/>samples = 11565<br/>value = [94, 10375, 958, 102, 36]>, fillcolor="#8ae84f"] ;
1195 -> 1196 ;
1197 [label=<gini = 0.151<br/>samples = 5408<br/>value = [74, 4970, 333, 24, 7]>, fillcolor="#86e74a"] ;
1196 -> 1197 ;
1198 [label=<gini = 0.219<br/>samples = 6157<br/>value = [20, 5405, 625, 78, 29]>, fillcolor="#8de954"] ;
1196 -> 1198 ;
1199 [label=<PULocationID &le; 263.5<br/>gini = 0.335<br/>samples = 14360<br/>value = [26, 11450, 2442, 371, 71]>, fillcolor="#9beb69"] ;
1195 -> 1199 ;
1200 [label=<gini = 0.344<br/>samples = 7339<br/>value = [1, 5796, 1309, 203, 30]>, fillcolor="#9dec6c"] ;
1199 -> 1200 ;
1201 [label=<gini = 0.325<br/>samples = 7021<br/>value = [25, 5654, 1133, 168, 41]>, fillcolor="#9aeb67"] ;
1199 -> 1201 ;
1202 [label=<PULocationID &le; 158.5<br/>gini = 0.685<br/>samples = 456348<br/>value = [160866, 179798, 81442, 28180, 6062]>, fillcolor="#f7fdf2"] ;
1036 -> 1202 ;
1203 [label=<hour &le; 2.5<br/>gini = 0.637<br/>samples = 43751<br/>value = [3993, 12691, 22397, 3841, 829]>, fillcolor="#c1f7ed"] ;
1202 -> 1203 ;
1204 [label=<dow &le; 5.5<br/>gini = 0.541<br/>samples = 24297<br/>value = [2316, 2520, 15807, 3038, 616]>, fillcolor="#88efdc"] ;
1203 -> 1204 ;
